{"learner":{"attributes":{"scikit_learn":"{\"_estimator_type\": \"classifier\"}"},"feature_names":[],"feature_types":[],"gradient_booster":{"model":{"gbtree_model_param":{"num_parallel_tree":"1","num_trees":"200"},"iteration_indptr":[0,1,2,3,4,5,6,7,8,9,10,11,12,13,14,15,16,17,18,19,20,21,22,23,24,25,26,27,28,29,30,31,32,33,34,35,36,37,38,39,40,41,42,43,44,45,46,47,48,49,50,51,52,53,54,55,56,57,58,59,60,61,62,63,64,65,66,67,68,69,70,71,72,73,74,75,76,77,78,79,80,81,82,83,84,85,86,87,88,89,90,91,92,93,94,95,96,97,98,99,100,101,102,103,104,105,106,107,108,109,110,111,112,113,114,115,116,117,118,119,120,121,122,123,124,125,126,127,128,129,130,131,132,133,134,135,136,137,138,139,140,141,142,143,144,145,146,147,148,149,150,151,152,153,154,155,156,157,158,159,160,161,162,163,164,165,166,167,168,169,170,171,172,173,174,175,176,177,178,179,180,181,182,183,184,185,186,187,188,189,190,191,192,193,194,195,196,197,198,199,200],"tree_info":[0,0,0,0,0,0,0,0,0,0,0,0,0,0,0,0,0,0,0,0,0,0,0,0,0,0,0,0,0,0,0,0,0,0,0,0,0,0,0,0,0,0,0,0,0,0,0,0,0,0,0,0,0,0,0,0,0,0,0,0,0,0,0,0,0,0,0,0,0,0,0,0,0,0,0,0,0,0,0,0,0,0,0,0,0,0,0,0,0,0,0,0,0,0,0,0,0,0,0,0,0,0,0,0,0,0,0,0,0,0,0,0,0,0,0,0,0,0,0,0,0,0,0,0,0,0,0,0,0,0,0,0,0,0,0,0,0,0,0,0,0,0,0,0,0,0,0,0,0,0,0,0,0,0,0,0,0,0,0,0,0,0,0,0,0,0,0,0,0,0,0,0,0,0,0,0,0,0,0,0,0,0,0,0,0,0,0,0,0,0,0,0,0,0,0,0,0,0,0,0],"trees":[{"base_weights":[-5.3372283E-2,-7.479257E-1,1.1084003E0,-1.1111456E0,-9.614518E-2,-5.3069744E-2,1.6174552E0,-1.1675691E-2,4.391656E-3,-6.3528772E-3,4.8116413E-3,-7.118522E-3,7.96498E-3,1.1096668E-2,2.1004522E-2],"categories":[],"categories_nodes":[],"categories_segments":[],"categories_sizes":[],"default_left":[0,0,0,0,0,0,0,0,0,0,0,0,0,0,0],"id":0,"left_children":[1,3,5,7,9,11,13,-1,-1,-1,-1,-1,-1,-1,-1],"loss_changes":[9.237696E1,1.668401E1,2.5605312E1,4.8462143E0,8.997449E0,8.925097E0,3.5117111E0,0E0,0E0,0E0,0E0,0E0,0E0,0E0,0E0],"parents":[2147483647,0,0,1,1,2,2,3,3,4,4,5,5,6,6],"right_children":[2,4,6,8,10,12,14,-1,-1,-1,-1,-1,-1,-1,-1],"split_conditions":[2.2486505E-1,-2.0014292E-1,-2.2575417E-1,1.6965982E0,-4.4105363E-1,7.956525E-1,1.2078879E0,-1.1675691E-2,4.391656E-3,-6.3528772E-3,4.8116413E-3,-7.118522E-3,7.96498E-3,1.1096668E-2,2.1004522E-2],"split_indices":[1,7,5,5,1,1,1,0,0,0,0,0,0,0,0],"split_type":[0,0,0,0,0,0,0,0,0,0,0,0,0,0,0],"sum_hessian":[1.1148553E2,7.016095E1,4.1324574E1,4.427633E1,2.5884623E1,1.2942311E1,2.8382261E1,4.3141037E1,1.1352905E0,1.3396428E1,1.2488195E1,7.492917E0,5.449394E0,1.6348183E1,1.203408E1],"tree_param":{"num_deleted":"0","num_feature":"8","num_nodes":"15","size_leaf_vector":"1"}},{"base_weights":[4.776617E-2,-4.9823987E-1,1.641784E0,-1.2234831E0,-1.4038213E-1,5.9431547E-1,1.9976387E0,-1.3332154E-2,-5.4796725E-3,-6.520236E-3,4.775013E-3,4.1624822E-4,1.02736745E-2,2.0509688E-2,4.3085627E-3],"categories":[],"categories_nodes":[],"categories_segments":[],"categories_sizes":[],"default_left":[0,0,0,0,0,0,0,0,0,0,0,0,0,0,0],"id":1,"left_children":[1,3,5,7,9,11,13,-1,-1,-1,-1,-1,-1,-1,-1],"loss_changes":[9.768983E1,2.1292965E1,8.635582E0,7.4131393E-1,1.8737864E1,2.0953376E0,1.5353394E-1,0E0,0E0,0E0,0E0,0E0,0E0,0E0,0E0],"parents":[2147483647,0,0,1,1,2,2,3,3,4,4,5,5,6,6],"right_children":[2,4,6,8,10,12,14,-1,-1,-1,-1,-1,-1,-1,-1],"split_conditions":[7.322317E-1,-5.185628E-1,1.0810462E0,5.6103384E-1,-2.0014292E-1,7.714908E-1,4.0068617E0,-1.3332154E-2,-5.4796725E-3,-6.520236E-3,4.775013E-3,4.1624822E-4,1.02736745E-2,2.0509688E-2,4.3085627E-3],"split_indices":[1,5,1,7,7,3,4,0,0,0,0,0,0,0,0],"split_type":[0,0,0,0,0,0,0,0,0,0,0,0,0,0,0],"sum_hessian":[1.0920168E2,8.206128E1,2.7140406E1,2.5821993E1,5.623929E1,7.9691534E0,1.9171251E1,2.082987E1,4.9921217E0,3.0807743E1,2.5431545E1,4.324732E0,3.6444216E0,1.8030165E1,1.1410862E0],"tree_param":{"num_deleted":"0","num_feature":"8","num_nodes":"15","size_leaf_vector":"1"}},{"base_weights":[9.71454E-2,-5.111994E-1,1.4218862E0,-1.0086696E0,4.838806E-2,6.5352315E-1,2.156451E0,-1.0859925E-2,-1.9996783E-3,-8.52989E-3,3.3161687E-3,-4.0194098E-4,9.3022175E-3,2.2328507E-2,4.2245258E-3],"categories":[],"categories_nodes":[],"categories_segments":[],"categories_sizes":[],"default_left":[0,0,0,0,0,0,0,0,0,0,0,0,0,0,0],"id":2,"left_children":[1,3,5,7,9,11,13,-1,-1,-1,-1,-1,-1,-1,-1],"loss_changes":[9.165608E1,2.1879116E1,1.7798912E1,2.1374702E0,1.0083318E1,3.927617E0,6.475525E-1,0E0,0E0,0E0,0E0,0E0,0E0,0E0,0E0],"parents":[2147483647,0,0,1,1,2,2,3,3,4,4,5,5,6,6],"right_children":[2,4,6,8,10,12,14,-1,-1,-1,-1,-1,-1,-1,-1],"split_conditions":[4.1512755E-1,-3.692933E-1,1.1761775E0,6.8290645E-1,-8.215786E-1,-5.493724E-1,2.337113E0,-1.0859925E-2,-1.9996783E-3,-8.52989E-3,3.3161687E-3,-4.0194098E-4,9.3022175E-3,2.2328507E-2,4.2245258E-3],"split_indices":[1,7,1,2,1,0,7,0,0,0,0,0,0,0,0],"split_type":[0,0,0,0,0,0,0,0,0,0,0,0,0,0,0],"sum_hessian":[1.1076555E2,7.648702E1,3.427853E1,3.9948204E1,3.6538815E1,1.8205751E1,1.6072779E1,3.5879635E1,4.0685687E0,7.9302363E0,2.860858E1,5.4536023E0,1.2752149E1,1.492594E1,1.1468387E0],"tree_param":{"num_deleted":"0","num_feature":"8","num_nodes":"15","size_leaf_vector":"1"}},{"base_weights":[4.7763266E-2,-6.1745584E-1,1.229331E0,-1.0764376E0,-2.9525064E-2,-3.393689E-2,1.7070988E0,-1.3712797E-2,-6.4968895E-3,-1.0121301E-2,2.7633694E-3,-7.2823176E-3,1.1907154E-2,7.898105E-3,1.9544417E-2],"categories":[],"categories_nodes":[],"categories_segments":[],"categories_sizes":[],"default_left":[0,0,0,0,0,0,0,0,0,0,0,0,0,0,0],"id":3,"left_children":[1,3,5,7,9,11,13,-1,-1,-1,-1,-1,-1,-1,-1],"loss_changes":[9.120341E1,1.986627E1,2.5483707E1,3.6876678E0,1.0762903E1,1.2209671E1,4.311386E0,0E0,0E0,0E0,0E0,0E0,0E0,0E0,0E0],"parents":[2147483647,0,0,1,1,2,2,3,3,4,4,5,5,6,6],"right_children":[2,4,6,8,10,12,14,-1,-1,-1,-1,-1,-1,-1,-1],"split_conditions":[2.2486505E-1,-3.692933E-1,-2.512158E-1,-1.1117688E-1,-6.7133254E-1,9.85915E-1,-5.2246076E-1,-1.3712797E-2,-6.4968895E-3,-1.0121301E-2,2.7633694E-3,-7.2823176E-3,1.1907154E-2,7.898105E-3,1.9544417E-2],"split_indices":[1,7,5,5,5,1,6,0,0,0,0,0,0,0,0],"split_type":[0,0,0,0,0,0,0,0,0,0,0,0,0,0,0],"sum_hessian":[1.13008224E2,7.270631E1,4.030192E1,4.003535E1,3.267095E1,1.1384434E1,2.8917488E1,2.1574883E1,1.8460468E1,7.0109677E0,2.5659985E1,7.705581E0,3.678852E0,7.5631385E0,2.135435E1],"tree_param":{"num_deleted":"0","num_feature":"8","num_nodes":"15","size_leaf_vector":"1"}},{"base_weights":[1.1004137E-2,-3.9562017E-1,1.8720297E0,-8.240235E-1,1.7569117E-1,9.971828E-1,2.1165563E-2,-1.0276596E-2,3.8128835E-3,3.564012E-5,6.920676E-3,1.304384E-2,1.2361216E-5],"categories":[],"categories_nodes":[],"categories_segments":[],"categories_sizes":[],"default_left":[0,0,0,0,0,0,0,0,0,0,0,0,0],"id":4,"left_children":[1,3,5,7,9,11,-1,-1,-1,-1,-1,-1,-1],"loss_changes":[8.844699E1,2.3717045E1,1.0078201E0,1.41721115E1,3.674714E0,2.1633935E0,0E0,0E0,0E0,0E0,0E0,0E0,0E0],"parents":[2147483647,0,0,1,1,2,2,3,3,4,4,5,5],"right_children":[2,4,6,8,10,12,-1,-1,-1,-1,-1,-1,-1],"split_conditions":[9.85915E-1,-1.8737033E-1,-4.5277035E-1,9.60541E-1,8.3460814E-1,-6.648715E-1,2.1165563E-2,-1.0276596E-2,3.8128835E-3,3.564012E-5,6.920676E-3,1.304384E-2,1.2361216E-5],"split_indices":[1,1,6,0,3,6,0,0,0,0,0,0,0],"split_type":[0,0,0,0,0,0,0,0,0,0,0,0,0],"sum_hessian":[1.1371611E2,9.4250305E1,1.9465803E1,5.358249E1,4.0667816E1,6.0055676E0,1.3460236E1,4.6098286E1,7.4842052E0,3.1778793E1,8.889025E0,4.1580606E0,1.8475069E0],"tree_param":{"num_deleted":"0","num_feature":"8","num_nodes":"13","size_leaf_vector":"1"}},{"base_weights":[1.0576158E-2,-6.1832136E-1,7.0561856E-1,-7.8987014E-1,7.676796E-1,-4.9545035E-1,1.0024326E0,-1.0445331E-2,-1.6847312E-3,8.0316863E-4,1.17124105E-2,-9.388569E-3,-4.988591E-4,6.511737E-3,1.4574523E-2],"categories":[],"categories_nodes":[],"categories_segments":[],"categories_sizes":[],"default_left":[0,0,0,0,0,0,0,0,0,0,0,0,0,0,0],"id":5,"left_children":[1,3,5,7,9,11,13,-1,-1,-1,-1,-1,-1,-1,-1],"loss_changes":[5.1022842E1,1.546479E1,2.0582272E1,8.36092E0,1.7969456E0,2.1888998E0,5.568741E0,0E0,0E0,0E0,0E0,0E0,0E0,0E0,0E0],"parents":[2147483647,0,0,1,1,2,2,3,3,4,4,5,5,6,6],"right_children":[2,4,6,8,10,12,14,-1,-1,-1,-1,-1,-1,-1,-1],"split_conditions":[-2.0014292E-1,1.2764814E0,-5.8221686E-1,7.445254E-2,9.608427E-1,6.45609E-1,1.5323298E-1,-1.0445331E-2,-1.6847312E-3,8.0316863E-4,1.17124105E-2,-9.388569E-3,-4.988591E-4,6.511737E-3,1.4574523E-2],"split_indices":[7,5,5,6,3,7,6,0,0,0,0,0,0,0,0],"split_type":[0,0,0,0,0,0,0,0,0,0,0,0,0,0,0],"sum_hessian":[1.1371039E2,5.9707108E1,5.400328E1,5.3769264E1,5.9378443E0,1.0435378E1,4.35679E1,3.7300365E1,1.64689E1,2.9535532E0,2.984291E0,4.2855105E0,6.149867E0,2.6769342E1,1.6798561E1],"tree_param":{"num_deleted":"0","num_feature":"8","num_nodes":"15","size_leaf_vector":"1"}},{"base_weights":[4.7565255E-2,-5.6394035E-1,1.3885657E0,-9.90967E-1,5.1550944E-3,2.2220647E-1,1.783538E0,-1.0882863E-2,9.788887E-3,-8.700506E-3,3.9537237E-3,-4.6756705E-3,8.408618E-3,1.155763E-2,2.1896115E-2],"categories":[],"categories_nodes":[],"categories_segments":[],"categories_sizes":[],"default_left":[0,0,0,0,0,0,0,0,0,0,0,0,0,0,0],"id":6,"left_children":[1,3,5,7,9,11,13,-1,-1,-1,-1,-1,-1,-1,-1],"loss_changes":[9.404063E1,1.9238102E1,1.5752968E1,1.025193E1,1.2469799E1,5.2632914E0,2.6392822E0,0E0,0E0,0E0,0E0,0E0,0E0,0E0,0E0],"parents":[2147483647,0,0,1,1,2,2,3,3,4,4,5,5,6,6],"right_children":[2,4,6,8,10,12,14,-1,-1,-1,-1,-1,-1,-1,-1],"split_conditions":[4.1512755E-1,-2.8471813E-1,-2.512158E-1,1.7093289E0,-6.630265E-1,7.956525E-1,1.1761775E0,-1.0882863E-2,9.788887E-3,-8.700506E-3,3.9537237E-3,-4.6756705E-3,8.408618E-3,1.155763E-2,2.1896115E-2],"split_indices":[1,7,5,5,1,1,1,0,0,0,0,0,0,0,0],"split_type":[0,0,0,0,0,0,0,0,0,0,0,0,0,0,0],"sum_hessian":[1.1164665E2,7.7225784E1,3.4420876E1,4.358505E1,3.364073E1,9.364482E0,2.5056393E1,4.2221203E1,1.3638471E0,9.725953E0,2.3914778E1,4.524525E0,4.8399568E0,1.22043915E1,1.2852E1],"tree_param":{"num_deleted":"0","num_feature":"8","num_nodes":"15","size_leaf_vector":"1"}},{"base_weights":[1.863242E-2,-5.8198214E-1,1.3451862E0,-1.0536556E0,-1.8738814E-2,2.2067067E-1,1.724159E-2,-1.2105853E-2,-2.3407694E-3,-1.0274116E-2,2.7463648E-3,-4.631971E-3,8.318028E-3],"categories":[],"categories_nodes":[],"categories_segments":[],"categories_sizes":[],"default_left":[0,0,0,0,0,0,0,0,0,0,0,0,0],"id":7,"left_children":[1,3,5,7,9,11,-1,-1,-1,-1,-1,-1,-1],"loss_changes":[9.2063896E1,2.0971043E1,1.4588295E1,4.976078E0,1.1694655E1,5.156829E0,0E0,0E0,0E0,0E0,0E0,0E0,0E0],"parents":[2147483647,0,0,1,1,2,2,3,3,4,4,5,5],"right_children":[2,4,6,8,10,12,-1,-1,-1,-1,-1,-1,-1],"split_conditions":[3.8341713E-1,-3.692933E-1,-2.512158E-1,8.9772546E-1,-5.8221686E-1,7.956525E-1,1.724159E-2,-1.2105853E-2,-2.3407694E-3,-1.0274116E-2,2.7463648E-3,-4.631971E-3,8.318028E-3],"split_indices":[1,7,5,3,5,1,0,0,0,0,0,0,0],"split_type":[0,0,0,0,0,0,0,0,0,0,0,0,0],"sum_hessian":[1.1247996E2,7.795249E1,3.4527466E1,4.1617455E1,3.6335037E1,9.367838E0,2.5159628E1,3.42263E1,7.3911576E0,7.418119E0,2.8916918E1,4.514973E0,4.8528647E0],"tree_param":{"num_deleted":"0","num_feature":"8","num_nodes":"13","size_leaf_vector":"1"}},{"base_weights":[-3.0730357E-2,-6.177301E-1,1.1012073E0,-8.1480694E-1,1.0572412E-1,4.7675043E-1,1.6737313E0,-1.0404332E-2,-2.6226216E-3,-1.7682944E-3,8.473979E-3,-2.821365E-3,6.6745067E-3,1.7710235E-2,2.0588748E-4],"categories":[],"categories_nodes":[],"categories_segments":[],"categories_sizes":[],"default_left":[0,0,0,0,0,0,0,0,0,0,0,0,0,0,0],"id":8,"left_children":[1,3,5,7,9,11,13,-1,-1,-1,-1,-1,-1,-1,-1],"loss_changes":[7.5670715E1,1.0900513E1,1.248539E1,6.848751E0,3.9144592E0,3.3273687E0,2.9182816E0,0E0,0E0,0E0,0E0,0E0,0E0,0E0,0E0],"parents":[2147483647,0,0,1,1,2,2,3,3,4,4,5,5,6,6],"right_children":[2,4,6,8,10,12,14,-1,-1,-1,-1,-1,-1,-1,-1],"split_conditions":[2.8828588E-1,4.9259484E-1,1.0810462E0,-1.8737033E-1,7.09101E-1,-7.075941E-1,2.2525377E0,-1.0404332E-2,-2.6226216E-3,-1.7682944E-3,8.473979E-3,-2.821365E-3,6.6745067E-3,1.7710235E-2,2.0588748E-4],"split_indices":[1,6,1,1,4,7,7,0,0,0,0,0,0,0,0],"split_type":[0,0,0,0,0,0,0,0,0,0,0,0,0,0,0],"sum_hessian":[1.1092232E2,7.355036E1,3.737196E1,5.7763706E1,1.5786651E1,1.9273705E1,1.8098255E1,3.9946495E1,1.7817213E1,1.2161179E1,3.6254723E0,3.6208842E0,1.5652821E1,1.693418E1,1.1640767E0],"tree_param":{"num_deleted":"0","num_feature":"8","num_nodes":"15","size_leaf_vector":"1"}},{"base_weights":[-2.4766074E-2,-4.283067E-1,1.8645176E0,-1.2231408E0,-1.1362426E-1,5.694211E-1,1.9805584E-2,-1.3195079E-2,-8.4788386E-5,-7.105091E-3,3.0533513E-3,7.648458E-3,1.6195836E-4],"categories":[],"categories_nodes":[],"categories_segments":[],"categories_sizes":[],"default_left":[0,0,0,0,0,0,0,0,0,0,0,0,0],"id":9,"left_children":[1,3,5,7,9,11,-1,-1,-1,-1,-1,-1,-1],"loss_changes":[8.7412796E1,2.3318985E1,1.0849533E0,2.962471E0,1.7748947E1,3.1792903E-1,0E0,0E0,0E0,0E0,0E0,0E0,0E0],"parents":[2147483647,0,0,1,1,2,2,3,3,4,4,5,5],"right_children":[2,4,6,8,10,12,-1,-1,-1,-1,-1,-1,-1],"split_conditions":[1.1127566E0,-5.8221686E-1,-4.294471E-1,5.419692E-1,-3.7763283E-1,-6.739616E-1,1.9805584E-2,-1.3195079E-2,-8.4788386E-5,-7.105091E-3,3.0533513E-3,7.648458E-3,1.6195836E-4],"split_indices":[1,5,5,1,1,6,0,0,0,0,0,0,0],"split_type":[0,0,0,0,0,0,0,0,0,0,0,0,0],"sum_hessian":[1.1177154E2,9.309898E1,1.8672558E1,2.5086536E1,6.801244E1,2.334976E0,1.6337582E1,2.3046318E1,2.0402195E0,2.7717958E1,4.0294487E1,1.1678847E0,1.1670911E0],"tree_param":{"num_deleted":"0","num_feature":"8","num_nodes":"13","size_leaf_vector":"1"}},{"base_weights":[-1.2491118E-2,-8.472213E-1,4.619146E-1,-1.0979826E0,1.656959E-2,-8.707155E-2,9.728703E-1,-1.1451985E-2,7.2055793E-4,7.8176465E-3,-8.003464E-3,-3.5620022E-3,9.7042015E-3,6.7751184E-3,1.384002E-2],"categories":[],"categories_nodes":[],"categories_segments":[],"categories_sizes":[],"default_left":[0,0,0,0,0,0,0,0,0,0,0,0,0,0,0],"id":10,"left_children":[1,3,5,7,9,11,13,-1,-1,-1,-1,-1,-1,-1,-1],"loss_changes":[4.6909794E1,9.440893E0,2.1371185E1,2.0766296E0,7.8462563E0,1.116913E1,3.1571426E0,0E0,0E0,0E0,0E0,0E0,0E0,0E0,0E0],"parents":[2147483647,0,0,1,1,2,2,3,3,4,4,5,5,6,6],"right_children":[2,4,6,8,10,12,14,-1,-1,-1,-1,-1,-1,-1,-1],"split_conditions":[-2.894082E-1,5.6103384E-1,-2.0014292E-1,8.9772546E-1,1.9142369E0,1.2764814E0,4.30417E-1,-1.1451985E-2,7.2055793E-4,7.8176465E-3,-8.003464E-3,-3.5620022E-3,9.7042015E-3,6.7751184E-3,1.384002E-2],"split_indices":[5,7,7,3,7,5,4,0,0,0,0,0,0,0,0],"split_type":[0,0,0,0,0,0,0,0,0,0,0,0,0,0,0],"sum_hessian":[1.1537919E2,4.146042E1,7.391877E1,3.1906843E1,9.5535755E0,3.6138813E1,3.7779953E1,3.0781979E1,1.1248646E0,5.0294795E0,4.5240955E0,2.9675734E1,6.4630795E0,2.4438421E1,1.3341533E1],"tree_param":{"num_deleted":"0","num_feature":"8","num_nodes":"15","size_leaf_vector":"1"}},{"base_weights":[1.4584E-3,-5.974485E-1,6.4647084E-1,-8.5014E-1,3.6787382E-1,2.6052457E-1,1.3537143E0,-1.007899E-2,-4.912668E-4,-2.7486112E-3,1.1962284E-2,4.713585E-3,-7.4104653E-3,-1.2865637E-3,1.5159203E-2],"categories":[],"categories_nodes":[],"categories_segments":[],"categories_sizes":[],"default_left":[0,0,0,0,0,0,0,0,0,0,0,0,0,0,0],"id":11,"left_children":[1,3,5,7,9,11,13,-1,-1,-1,-1,-1,-1,-1,-1],"loss_changes":[4.202776E1,1.4257517E1,1.3627275E1,5.529007E0,7.320831E0,8.074478E0,4.776119E0,0E0,0E0,0E0,0E0,0E0,0E0,0E0,0E0],"parents":[2147483647,0,0,1,1,2,2,3,3,4,4,5,5,6,6],"right_children":[2,4,6,8,10,12,14,-1,-1,-1,-1,-1,-1,-1,-1],"split_conditions":[-2.0014292E-1,7.714908E-1,3.0965394E-1,5.895554E-1,-1.891589E-1,-4.3350342E-1,-4.5916823E-1,-1.007899E-2,-4.912668E-4,-2.7486112E-3,1.1962284E-2,4.713585E-3,-7.4104653E-3,-1.2865637E-3,1.5159203E-2],"split_indices":[7,3,4,6,6,4,2,0,0,0,0,0,0,0,0],"split_type":[0,0,0,0,0,0,0,0,0,0,0,0,0,0,0],"sum_hessian":[1.0578255E2,5.482864E1,5.0953907E1,4.3677734E1,1.1150903E1,3.4384216E1,1.6569693E1,3.6062904E1,7.614831E0,6.775347E0,4.375556E0,2.9143358E1,5.240857E0,1.6040761E0,1.4965617E1],"tree_param":{"num_deleted":"0","num_feature":"8","num_nodes":"15","size_leaf_vector":"1"}},{"base_weights":[-4.5649275E-2,-7.091499E-1,1.0362688E0,-1.0804874E0,-1.9931829E-1,-3.4607717E-1,1.5459098E0,-1.1375699E-2,5.186968E-4,-8.6458605E-3,8.6083886E-4,-8.628613E-3,4.1403114E-3,9.9333115E-3,1.956132E-2],"categories":[],"categories_nodes":[],"categories_segments":[],"categories_sizes":[],"default_left":[0,0,0,0,0,0,0,0,0,0,0,0,0,0,0],"id":12,"left_children":[1,3,5,7,9,11,13,-1,-1,-1,-1,-1,-1,-1,-1],"loss_changes":[8.208309E1,1.2972206E1,3.153495E1,2.819458E0,6.2334194E0,5.639218E0,4.0612335E0,0E0,0E0,0E0,0E0,0E0,0E0,0E0,0E0],"parents":[2147483647,0,0,1,1,2,2,3,3,4,4,5,5,6,6],"right_children":[2,4,6,8,10,12,14,-1,-1,-1,-1,-1,-1,-1,-1],"split_conditions":[2.2486505E-1,-3.692933E-1,-2.512158E-1,1.3783278E0,-8.215786E-1,7.956525E-1,1.0810462E0,-1.1375699E-2,5.186968E-4,-8.6458605E-3,8.6083886E-4,-8.628613E-3,4.1403114E-3,9.9333115E-3,1.956132E-2],"split_indices":[1,7,5,5,1,1,1,0,0,0,0,0,0,0,0],"split_type":[0,0,0,0,0,0,0,0,0,0,0,0,0,0,0],"sum_hessian":[1.1135523E2,6.940248E1,4.1952747E1,3.907036E1,3.033212E1,1.1377554E1,3.0575195E1,3.727283E1,1.7975298E0,8.297388E0,2.2034733E1,6.7304363E0,4.6471176E0,1.5317768E1,1.5257426E1],"tree_param":{"num_deleted":"0","num_feature":"8","num_nodes":"15","size_leaf_vector":"1"}},{"base_weights":[-1.2758863E-1,-8.125187E-1,8.342364E-1,-8.6928713E-1,6.164758E-3,2.9733193E-1,1.5753058E0,-1.0171053E-2,-2.6016783E-3,-1.0752155E-3,1.0663211E-2,5.587042E-3,1.723996E-2],"categories":[],"categories_nodes":[],"categories_segments":[],"categories_sizes":[],"default_left":[0,0,0,0,0,0,0,0,0,0,0,0,0],"id":13,"left_children":[1,3,5,7,-1,9,11,-1,-1,-1,-1,-1,-1],"loss_changes":[7.455371E1,6.1847763E0,1.7853977E1,5.254692E0,0E0,9.372529E0,1.2539902E0,0E0,0E0,0E0,0E0,0E0,0E0],"parents":[2147483647,0,0,1,1,2,2,3,3,5,5,6,6],"right_children":[2,4,6,8,-1,10,12,-1,-1,-1,-1,-1,-1],"split_conditions":[1.2973382E-1,1.6965982E0,1.0810462E0,4.9259484E-1,6.164758E-3,7.0837355E-1,-2.639466E-1,-1.0171053E-2,-2.6016783E-3,-1.0752155E-3,1.0663211E-2,5.587042E-3,1.723996E-2],"split_indices":[1,5,1,6,0,3,5,0,0,0,0,0,0],"split_type":[0,0,0,0,0,0,0,0,0,0,0,0,0],"sum_hessian":[1.1012879E2,6.4519966E1,4.5608826E1,6.268715E1,1.8328185E0,2.7744627E1,1.7864197E1,4.9504707E1,1.3182441E1,1.893569E1,8.808938E0,3.2758505E0,1.45883465E1],"tree_param":{"num_deleted":"0","num_feature":"8","num_nodes":"13","size_leaf_vector":"1"}},{"base_weights":[3.210247E-2,-5.522897E-1,1.2671483E0,-1.3152342E0,-2.5563416E-1,4.1313687E-1,1.5133609E0,-1.9122289E-3,-1.3573187E-2,-5.292179E-3,6.3746264E-3,-5.1213023E-3,7.15882E-3,6.9371E-3,1.7310742E-2],"categories":[],"categories_nodes":[],"categories_segments":[],"categories_sizes":[],"default_left":[0,0,0,0,0,0,0,0,0,0,0,0,0,0,0],"id":14,"left_children":[1,3,5,7,9,11,13,-1,-1,-1,-1,-1,-1,-1,-1],"loss_changes":[8.115946E1,1.6599905E1,6.4662743E0,4.4426346E-1,1.4390598E1,3.4385228E0,2.8438873E0,0E0,0E0,0E0,0E0,0E0,0E0,0E0,0E0],"parents":[2147483647,0,0,1,1,2,2,3,3,4,4,5,5,6,6],"right_children":[2,4,6,8,10,12,14,-1,-1,-1,-1,-1,-1,-1,-1],"split_conditions":[4.1512755E-1,-6.331401E-1,-2.512158E-1,-1.7534513E0,4.653247E-1,-5.493724E-1,-5.4064083E-1,-1.9122289E-3,-1.3573187E-2,-5.292179E-3,6.3746264E-3,-5.1213023E-3,7.15882E-3,6.9371E-3,1.7310742E-2],"split_indices":[1,5,5,5,6,0,6,0,0,0,0,0,0,0,0],"split_type":[0,0,0,0,0,0,0,0,0,0,0,0,0,0,0],"sum_hessian":[1.0939449E2,7.476559E1,3.462891E1,1.9395767E1,5.5369816E1,8.739218E0,2.5889692E1,1.0858645E0,1.8309902E1,4.2939285E1,1.2430534E1,1.8173089E0,6.921909E0,6.847805E0,1.9041887E1],"tree_param":{"num_deleted":"0","num_feature":"8","num_nodes":"15","size_leaf_vector":"1"}},{"base_weights":[9.374941E-2,-4.3371522E-1,1.4663236E0,-8.9120644E-1,6.127519E-2,7.3162836E-1,1.8758353E-2,-1.0595233E-2,1.2564616E-3,-7.428417E-3,2.5532653E-3,1.3146341E-3,1.0460251E-2],"categories":[],"categories_nodes":[],"categories_segments":[],"categories_sizes":[],"default_left":[0,0,0,0,0,0,0,0,0,0,0,0,0],"id":15,"left_children":[1,3,5,7,9,11,-1,-1,-1,-1,-1,-1,-1],"loss_changes":[8.257814E1,1.8835266E1,7.20417E0,7.6608543E0,6.6176105E0,2.2941284E0,0E0,0E0,0E0,0E0,0E0,0E0,0E0],"parents":[2147483647,0,0,1,1,2,2,3,3,4,4,5,5],"right_children":[2,4,6,8,10,12,-1,-1,-1,-1,-1,-1,-1],"split_conditions":[6.0539E-1,-3.692933E-1,1.1761775E0,2.2486505E-1,-8.315224E-1,-5.527609E-1,1.8758353E-2,-1.0595233E-2,1.2564616E-3,-7.428417E-3,2.5532653E-3,1.3146341E-3,1.0460251E-2],"split_indices":[1,7,1,1,6,6,0,0,0,0,0,0,0],"split_type":[0,0,0,0,0,0,0,0,0,0,0,0,0],"sum_hessian":[1.11100395E2,8.094667E1,3.015372E1,4.1547787E1,3.9398888E1,1.2375397E1,1.7778324E1,3.567757E1,5.8702164E0,6.734558E0,3.266433E1,5.0948725E0,7.2805243E0],"tree_param":{"num_deleted":"0","num_feature":"8","num_nodes":"13","size_leaf_vector":"1"}},{"base_weights":[6.551091E-3,-6.385809E-1,1.1659725E0,-1.0617322E0,-1.4368679E-1,5.836032E-1,1.7736572E0,-1.12192E-2,3.906593E-4,-4.417494E-3,5.114552E-3,6.7707584E-3,-2.241474E-3,1.8912297E-2,-0E0],"categories":[],"categories_nodes":[],"categories_segments":[],"categories_sizes":[],"default_left":[0,0,0,0,0,0,0,0,0,0,0,0,0,0,0],"id":16,"left_children":[1,3,5,7,9,11,13,-1,-1,-1,-1,-1,-1,-1,-1],"loss_changes":[8.192754E1,1.436895E1,1.2079075E1,2.6614876E0,7.017895E0,1.9588323E0,3.680397E0,0E0,0E0,0E0,0E0,0E0,0E0,0E0,0E0],"parents":[2147483647,0,0,1,1,2,2,3,3,4,4,5,5,6,6],"right_children":[2,4,6,8,10,12,14,-1,-1,-1,-1,-1,-1,-1,-1],"split_conditions":[2.8828588E-1,-3.692933E-1,1.1761775E0,2.2486505E-1,6.452562E-1,2.337113E0,2.5062633E0,-1.12192E-2,3.906593E-4,-4.417494E-3,5.114552E-3,6.7707584E-3,-2.241474E-3,1.8912297E-2,-0E0],"split_indices":[1,7,1,1,3,7,7,0,0,0,0,0,0,0,0],"split_type":[0,0,0,0,0,0,0,0,0,0,0,0,0,0,0],"sum_hessian":[1.0646808E2,6.878302E1,3.768506E1,3.6044025E1,3.273899E1,2.0828941E1,1.6856117E1,3.423428E1,1.8097471E0,2.2942373E1,9.796617E0,1.8997072E1,1.8318707E0,1.5673739E1,1.1823776E0],"tree_param":{"num_deleted":"0","num_feature":"8","num_nodes":"15","size_leaf_vector":"1"}},{"base_weights":[-4.158335E-2,-5.9958243E-1,8.6152554E-1,-1.2860538E-2,-3.262927E-1,-2.690894E-1,1.2498416E0,-4.9105943E-3,4.476534E-3,-7.5598145E-3,3.1679447E-3,7.777358E-3,1.738899E-2],"categories":[],"categories_nodes":[],"categories_segments":[],"categories_sizes":[],"default_left":[0,0,0,0,0,0,0,0,0,0,0,0,0],"id":17,"left_children":[1,3,5,-1,7,9,11,-1,-1,-1,-1,-1,-1],"loss_changes":[5.600142E1,1.2102144E1,1.9226402E1,0E0,6.87186E0,3.8300405E0,5.086586E0,0E0,0E0,0E0,0E0,0E0,0E0],"parents":[2147483647,0,0,1,1,2,2,4,4,5,5,6,6],"right_children":[2,4,6,-1,8,10,12,-1,-1,-1,-1,-1,-1],"split_conditions":[2.2486505E-1,-6.331401E-1,-2.639466E-1,-1.2860538E-2,9.60541E-1,7.956525E-1,1.1761775E0,-4.9105943E-3,4.476534E-3,-7.5598145E-3,3.1679447E-3,7.777358E-3,1.738899E-2],"split_indices":[1,5,5,0,0,1,1,0,0,0,0,0,0],"split_type":[0,0,0,0,0,0,0,0,0,0,0,0,0],"sum_hessian":[1.081429E2,6.722303E1,4.0919872E1,1.745457E1,4.976846E1,1.0513106E1,3.0406765E1,4.159146E1,8.177002E0,5.5969872E0,4.916119E0,1.7552528E1,1.2854236E1],"tree_param":{"num_deleted":"0","num_feature":"8","num_nodes":"13","size_leaf_vector":"1"}},{"base_weights":[5.144925E-2,-5.239749E-1,1.2488486E0,-9.1360533E-1,8.406581E-2,6.2160385E-1,1.6837913E0,-1.1158332E-2,-4.18355E-3,-3.1555737E-3,4.6037724E-3,1.0357268E-4,8.123016E-3,1.7426819E-2,2.8821754E-3],"categories":[],"categories_nodes":[],"categories_segments":[],"categories_sizes":[],"default_left":[0,0,0,0,0,0,0,0,0,0,0,0,0,0,0],"id":18,"left_children":[1,3,5,7,9,11,13,-1,-1,-1,-1,-1,-1,-1,-1],"loss_changes":[7.934903E1,1.8618147E1,8.398159E0,3.914917E0,4.99022E0,1.9775515E0,7.779236E-1,0E0,0E0,0E0,0E0,0E0,0E0,0E0,0E0],"parents":[2147483647,0,0,1,1,2,2,3,3,4,4,5,5,6,6],"right_children":[2,4,6,8,10,12,14,-1,-1,-1,-1,-1,-1,-1,-1],"split_conditions":[4.1512755E-1,-2.0014292E-1,1.0810462E0,5.6272443E-2,-4.093432E-1,-6.679015E-1,2.7681375E0,-1.1158332E-2,-4.18355E-3,-3.1555737E-3,4.6037724E-3,1.0357268E-4,8.123016E-3,1.7426819E-2,2.8821754E-3],"split_indices":[1,7,1,6,1,6,6,0,0,0,0,0,0,0,0],"split_type":[0,0,0,0,0,0,0,0,0,0,0,0,0,0,0],"sum_hessian":[1.12133644E2,7.625062E1,3.5883026E1,4.6112522E1,3.0138098E1,1.6279501E1,1.9603523E1,3.126458E1,1.4847941E1,1.4604893E1,1.5533204E1,4.371932E0,1.1907569E1,1.8383057E1,1.220467E0],"tree_param":{"num_deleted":"0","num_feature":"8","num_nodes":"15","size_leaf_vector":"1"}},{"base_weights":[2.9638875E-2,-5.2003545E-1,1.1610584E0,-1.1840498E0,-1.5452886E-1,1.9255582E-2,1.5135113E0,-1.3070185E-2,-2.621433E-3,-5.75717E-3,3.4701463E-3,-5.504287E-3,5.410106E-3,9.735098E-3,1.788074E-2],"categories":[],"categories_nodes":[],"categories_segments":[],"categories_sizes":[],"default_left":[0,0,0,0,0,0,0,0,0,0,0,0,0,0,0],"id":19,"left_children":[1,3,5,7,9,11,13,-1,-1,-1,-1,-1,-1,-1,-1],"loss_changes":[6.97908E1,1.7904446E1,1.4574898E1,2.3294487E0,1.0987841E1,3.490711E0,1.2585831E0,0E0,0E0,0E0,0E0,0E0,0E0,0E0,0E0],"parents":[2147483647,0,0,1,1,2,2,3,3,4,4,5,5,6,6],"right_children":[2,4,6,8,10,12,14,-1,-1,-1,-1,-1,-1,-1,-1],"split_conditions":[4.1512755E-1,-5.185628E-1,-2.512158E-1,5.6103384E-1,-2.0014292E-1,7.956525E-1,1.1127566E0,-1.3070185E-2,-2.621433E-3,-5.75717E-3,3.4701463E-3,-5.504287E-3,5.410106E-3,9.735098E-3,1.788074E-2],"split_indices":[1,5,5,7,7,1,1,0,0,0,0,0,0,0,0],"split_type":[0,0,0,0,0,0,0,0,0,0,0,0,0,0,0],"sum_hessian":[1.0916034E2,7.3953766E1,3.5206573E1,2.4965755E1,4.8988007E1,8.7443E0,2.6462275E1,2.1379038E1,3.5867193E0,2.6614841E1,2.2373165E1,4.049123E0,4.695177E0,1.1340622E1,1.5121653E1],"tree_param":{"num_deleted":"0","num_feature":"8","num_nodes":"15","size_leaf_vector":"1"}},{"base_weights":[7.844071E-2,-6.534025E-1,1.015719E0,-8.137815E-1,1.1695721E-1,1.4360611E-2,1.3960271E0,-1.0794156E-2,-4.4768667E-3,-7.5248247E-3,5.383432E-3,-5.49763E-3,7.928438E-3,1.0015188E-2,1.733781E-2],"categories":[],"categories_nodes":[],"categories_segments":[],"categories_sizes":[],"default_left":[0,0,0,0,0,0,0,0,0,0,0,0,0,0,0],"id":20,"left_children":[1,3,5,7,9,11,13,-1,-1,-1,-1,-1,-1,-1,-1],"loss_changes":[7.868281E1,8.171671E0,1.897768E1,4.3364983E0,5.0943103E0,7.453654E0,1.9659119E0,0E0,0E0,0E0,0E0,0E0,0E0,0E0,0E0],"parents":[2147483647,0,0,1,1,2,2,3,3,4,4,5,5,6,6],"right_children":[2,4,6,8,10,12,14,-1,-1,-1,-1,-1,-1,-1,-1],"split_conditions":[1.2973382E-1,9.60541E-1,-2.512158E-1,4.159284E-2,-6.840633E-1,7.956525E-1,1.1761775E0,-1.0794156E-2,-4.4768667E-3,-7.5248247E-3,5.383432E-3,-5.49763E-3,7.928438E-3,1.0015188E-2,1.733781E-2],"split_indices":[1,0,5,5,5,1,1,0,0,0,0,0,0,0,0],"split_type":[0,0,0,0,0,0,0,0,0,0,0,0,0,0,0],"sum_hessian":[1.1170374E2,6.292131E1,4.8782433E1,5.211657E1,1.0804741E1,1.3928364E1,3.485407E1,2.8350172E1,2.3766397E1,3.0649538E0,7.7397866E0,8.257129E0,5.6712356E0,1.895634E1,1.5897729E1],"tree_param":{"num_deleted":"0","num_feature":"8","num_nodes":"15","size_leaf_vector":"1"}},{"base_weights":[-2.2864247E-2,-4.9073735E-1,1.4061084E0,-1.1664317E0,-2.0376885E-1,4.409421E-1,1.6263695E0,-2.0459576E-3,-1.2279065E-2,-7.6181157E-3,2.3325598E-3,-1.0829908E-3,8.365399E-3,5.962398E-3,1.7685475E-2],"categories":[],"categories_nodes":[],"categories_segments":[],"categories_sizes":[],"default_left":[0,0,0,0,0,0,0,0,0,0,0,0,0,0,0],"id":21,"left_children":[1,3,5,7,9,11,13,-1,-1,-1,-1,-1,-1,-1,-1],"loss_changes":[7.695517E1,1.6339802E1,4.750469E0,9.851837E-1,1.5648558E1,1.8198862E0,1.4717941E0,0E0,0E0,0E0,0E0,0E0,0E0,0E0,0E0],"parents":[2147483647,0,0,1,1,2,2,3,3,4,4,5,5,6,6],"right_children":[2,4,6,8,10,12,14,-1,-1,-1,-1,-1,-1,-1,-1],"split_conditions":[7.322317E-1,-5.8221686E-1,1.0810462E0,-1.7534513E0,-4.4105363E-1,3.022149E-1,-2.639466E-1,-2.0459576E-3,-1.2279065E-2,-7.6181157E-3,2.3325598E-3,-1.0829908E-3,8.365399E-3,5.962398E-3,1.7685475E-2],"split_indices":[1,5,1,5,1,2,5,0,0,0,0,0,0,0,0],"split_type":[0,0,0,0,0,0,0,0,0,0,0,0,0,0,0],"sum_hessian":[1.1219156E2,8.5313225E1,2.6878336E1,2.395752E1,6.13557E1,5.915212E0,2.0963125E1,1.9269743E0,2.2030546E1,2.655778E1,3.4797924E1,2.8269296E0,3.0882826E0,3.5725474E0,1.7390577E1],"tree_param":{"num_deleted":"0","num_feature":"8","num_nodes":"15","size_leaf_vector":"1"}},{"base_weights":[-3.7084233E-3,-5.1721215E-1,5.661745E-1,-7.4911475E-1,3.7286088E-1,1.3696155E-1,8.4941685E-1,-9.250853E-3,-1.2828769E-4,-3.3764105E-4,6.919932E-3,2.951899E-3,-6.9380873E-3,3.6145833E-3,1.2081234E-2],"categories":[],"categories_nodes":[],"categories_segments":[],"categories_sizes":[],"default_left":[0,0,0,0,0,0,0,0,0,0,0,0,0,0,0],"id":22,"left_children":[1,3,5,7,9,11,13,-1,-1,-1,-1,-1,-1,-1,-1],"loss_changes":[3.2611565E1,1.2576029E1,6.1386185E0,5.9995804E0,1.794113E0,3.2770889E0,4.6743717E0,0E0,0E0,0E0,0E0,0E0,0E0,0E0,0E0],"parents":[2147483647,0,0,1,1,2,2,3,3,4,4,5,5,6,6],"right_children":[2,4,6,8,10,12,14,-1,-1,-1,-1,-1,-1,-1,-1],"split_conditions":[-2.0014292E-1,5.895554E-1,-5.194307E-1,4.3970647E-1,3.92787E-1,-5.9821117E-1,3.92787E-1,-9.250853E-3,-1.2828769E-4,-3.3764105E-4,6.919932E-3,2.951899E-3,-6.9380873E-3,3.6145833E-3,1.2081234E-2],"split_indices":[7,6,6,4,3,6,3,0,0,0,0,0,0,0,0],"split_type":[0,0,0,0,0,0,0,0,0,0,0,0,0,0,0],"sum_hessian":[1.0845604E2,5.7215263E1,5.1240776E1,4.5666946E1,1.1548316E1,2.1396235E1,2.984454E1,3.643792E1,9.229026E0,5.530077E0,6.0182395E0,1.8886503E1,2.5097313E0,1.4038233E1,1.5806307E1],"tree_param":{"num_deleted":"0","num_feature":"8","num_nodes":"15","size_leaf_vector":"1"}},{"base_weights":[-1.0314045E-1,-4.3271965E-1,1.5753934E0,-9.0520644E-1,6.1854888E-2,1.6397591E0,2.587749E-3,-1.0885943E-2,-2.9832294E-4,-9.934261E-3,2.936914E-3,3.114137E-3,1.7457062E-2],"categories":[],"categories_nodes":[],"categories_segments":[],"categories_sizes":[],"default_left":[0,0,0,0,0,0,0,0,0,0,0,0,0],"id":23,"left_children":[1,3,5,7,9,11,-1,-1,-1,-1,-1,-1,-1],"loss_changes":[6.3458183E1,2.2540087E1,7.694397E-1,7.731415E0,1.2129523E1,1.4556656E0,0E0,0E0,0E0,0E0,0E0,0E0,0E0],"parents":[2147483647,0,0,1,1,2,2,3,3,4,4,5,5],"right_children":[2,4,6,8,10,12,-1,-1,-1,-1,-1,-1,-1],"split_conditions":[1.0810462E0,-3.692933E-1,2.7681375E0,2.2486505E-1,-6.586017E-1,-7.075941E-1,2.587749E-3,-1.0885943E-2,-2.9832294E-4,-9.934261E-3,2.936914E-3,3.114137E-3,1.7457062E-2],"split_indices":[1,7,6,1,5,7,0,0,0,0,0,0,0],"split_type":[0,0,0,0,0,0,0,0,0,0,0,0,0],"sum_hessian":[1.1156722E2,9.423676E1,1.7330456E1,4.766105E1,4.6575718E1,1.6099308E1,1.2311482E0,3.9009163E1,8.651885E0,7.4240055E0,3.915171E1,1.6954129E0,1.4403894E1],"tree_param":{"num_deleted":"0","num_feature":"8","num_nodes":"13","size_leaf_vector":"1"}},{"base_weights":[-0E0,-7.859154E-1,3.517548E-1,-1.0819243E0,-3.3223104E-1,-1.327608E-1,6.828669E-1,-1.6580427E-3,-1.1135578E-2,-5.346434E-3,2.4261673E-3,-4.54439E-3,1.1900584E-2,3.8663012E-3,1.070156E-2],"categories":[],"categories_nodes":[],"categories_segments":[],"categories_sizes":[],"default_left":[0,0,0,0,0,0,0,0,0,0,0,0,0,0,0],"id":24,"left_children":[1,3,5,7,9,11,13,-1,-1,-1,-1,-1,-1,-1,-1],"loss_changes":[3.1653801E1,4.0725155E0,1.288823E1,1.9269562E-1,2.1172085E0,1.4891853E1,4.669834E0,0E0,0E0,0E0,0E0,0E0,0E0,0E0,0E0],"parents":[2147483647,0,0,1,1,2,2,3,3,4,4,5,5,6,6],"right_children":[2,4,6,8,10,12,14,-1,-1,-1,-1,-1,-1,-1,-1],"split_conditions":[-3.912547E-1,-3.692933E-1,-3.692933E-1,-1.6012429E0,3.101532E-3,1.2764814E0,1.385221E-2,-1.6580427E-3,-1.1135578E-2,-5.346434E-3,2.4261673E-3,-4.54439E-3,1.1900584E-2,3.8663012E-3,1.070156E-2],"split_indices":[5,7,7,2,4,5,6,0,0,0,0,0,0,0,0],"split_type":[0,0,0,0,0,0,0,0,0,0,0,0,0,0,0],"sum_hessian":[1.1153862E2,3.3893105E1,7.7645515E1,1.9120367E1,1.4772738E1,3.1763138E1,4.5882378E1,1.056184E0,1.8064184E1,1.11319E1,3.6408384E0,2.6402874E1,5.3602633E0,2.7841852E1,1.8040525E1],"tree_param":{"num_deleted":"0","num_feature":"8","num_nodes":"15","size_leaf_vector":"1"}},{"base_weights":[-4.4064388E-2,-6.6690135E-1,9.500083E-1,-1.1435925E0,-3.3812436E-1,-2.5201479E-2,1.2816088E0,-1.1977559E-2,-7.353807E-4,-8.454888E-3,8.193892E-4,-5.4965364E-3,5.9181824E-3,6.1699823E-3,1.4471146E-2],"categories":[],"categories_nodes":[],"categories_segments":[],"categories_sizes":[],"default_left":[0,0,0,0,0,0,0,0,0,0,0,0,0,0,0],"id":25,"left_children":[1,3,5,7,9,11,13,-1,-1,-1,-1,-1,-1,-1,-1],"loss_changes":[7.1536896E1,1.0409044E1,1.4561256E1,1.3781967E0,9.623799E0,4.5881677E0,2.1178703E0,0E0,0E0,0E0,0E0,0E0,0E0,0E0,0E0],"parents":[2147483647,0,0,1,1,2,2,3,3,4,4,5,5,6,6],"right_children":[2,4,6,8,10,12,14,-1,-1,-1,-1,-1,-1,-1,-1],"split_conditions":[2.2486505E-1,-3.912547E-1,-2.639466E-1,6.452562E-1,-4.538685E-1,7.956525E-1,-5.2246076E-1,-1.1977559E-2,-7.353807E-4,-8.454888E-3,8.193892E-4,-5.4965364E-3,5.9181824E-3,6.1699823E-3,1.4471146E-2],"split_indices":[1,5,5,3,7,1,6,0,0,0,0,0,0,0,0],"split_type":[0,0,0,0,0,0,0,0,0,0,0,0,0,0,0],"sum_hessian":[1.12552185E2,6.956221E1,4.2989975E1,2.6752432E1,4.2809776E1,1.1183793E1,3.1806181E1,2.5204195E1,1.5482377E0,1.8809744E1,2.4000032E1,6.2215023E0,4.9622903E0,7.875845E0,2.3930336E1],"tree_param":{"num_deleted":"0","num_feature":"8","num_nodes":"15","size_leaf_vector":"1"}},{"base_weights":[3.766434E-2,-7.753686E-1,5.039062E-1,-1.0112292E0,1.2103681E-1,8.4528536E-2,1.097993E0,-1.0493681E-2,-1.5448546E-3,8.700025E-3,-5.9564444E-3,-6.1746472E-3,3.7218973E-3,2.3509965E-3,1.2424706E-2],"categories":[],"categories_nodes":[],"categories_segments":[],"categories_sizes":[],"default_left":[0,0,0,0,0,0,0,0,0,0,0,0,0,0,0],"id":26,"left_children":[1,3,5,7,9,11,13,-1,-1,-1,-1,-1,-1,-1,-1],"loss_changes":[4.2175747E1,8.840744E0,1.7372492E1,6.9290924E-1,6.007715E0,9.044579E0,3.0366707E0,0E0,0E0,0E0,0E0,0E0,0E0,0E0,0E0],"parents":[2147483647,0,0,1,1,2,2,3,3,4,4,5,5,6,6],"right_children":[2,4,6,8,10,12,14,-1,-1,-1,-1,-1,-1,-1,-1],"split_conditions":[-2.639466E-1,6.45609E-1,1.5323298E-1,1.2625237E0,1.9142369E0,-7.075941E-1,-8.513551E-1,-1.0493681E-2,-1.5448546E-3,8.700025E-3,-5.9564444E-3,-6.1746472E-3,3.7218973E-3,2.3509965E-3,1.2424706E-2],"split_indices":[5,7,6,0,7,7,0,0,0,0,0,0,0,0,0],"split_type":[0,0,0,0,0,0,0,0,0,0,0,0,0,0,0],"sum_hessian":[1.0828666E2,3.9025303E1,6.926136E1,3.0832203E1,8.193098E0,4.1703667E1,2.7557693E1,2.9083542E1,1.7486616E0,3.9176269E0,4.275471E0,1.1521012E1,3.0182653E1,4.616804E0,2.294089E1],"tree_param":{"num_deleted":"0","num_feature":"8","num_nodes":"15","size_leaf_vector":"1"}},{"base_weights":[9.131733E-3,-3.6643282E-1,1.5999295E0,-1.0909265E0,-3.227436E-2,1.6574085E0,2.422498E-3,-1.8343921E-3,-1.13932425E-2,-8.9825895E-3,2.022896E-3,3.08943E-3,1.7109212E-2],"categories":[],"categories_nodes":[],"categories_segments":[],"categories_sizes":[],"default_left":[0,0,0,0,0,0,0,0,0,0,0,0,0],"id":27,"left_children":[1,3,5,7,9,11,-1,-1,-1,-1,-1,-1,-1],"loss_changes":[6.99506E1,2.2720695E1,9.536438E-1,8.585968E-1,1.3816446E1,5.3030396E-1,0E0,0E0,0E0,0E0,0E0,0E0,0E0],"parents":[2147483647,0,0,1,1,2,2,3,3,4,4,5,5],"right_children":[2,4,6,8,10,12,-1,-1,-1,-1,-1,-1,-1],"split_conditions":[1.0810462E0,-5.185628E-1,2.7681375E0,-1.7534513E0,-8.215786E-1,-1.0315036E0,2.422498E-3,-1.8343921E-3,-1.13932425E-2,-8.9825895E-3,2.022896E-3,3.08943E-3,1.7109212E-2],"split_indices":[1,5,6,5,1,6,0,0,0,0,0,0,0],"split_type":[0,0,0,0,0,0,0,0,0,0,0,0,0],"sum_hessian":[1.1390409E2,9.303215E1,2.0871939E1,2.8198427E1,6.4833725E1,1.9635826E1,1.2361114E0,1.8961453E0,2.6302282E1,1.3004526E1,5.1829197E1,1.2086133E0,1.8427214E1],"tree_param":{"num_deleted":"0","num_feature":"8","num_nodes":"13","size_leaf_vector":"1"}},{"base_weights":[3.390241E-2,-3.1869057E-1,1.6351355E-2,-1.0325761E0,-0E0,-1.1906739E-2,-2.3461697E-3,-8.129796E-3,2.8725022E-3],"categories":[],"categories_nodes":[],"categories_segments":[],"categories_sizes":[],"default_left":[0,0,0,0,0,0,0,0,0],"id":28,"left_children":[1,3,-1,5,7,-1,-1,-1,-1],"loss_changes":[6.2498993E1,2.062092E1,0E0,2.9670944E0,1.5322145E1,0E0,0E0,0E0,0E0],"parents":[2147483647,0,0,1,1,3,3,4,4],"right_children":[2,4,-1,6,8,-1,-1,-1,-1],"split_conditions":[1.1127566E0,-5.185628E-1,1.6351355E-2,8.147594E-1,-6.630265E-1,-1.1906739E-2,-2.3461697E-3,-8.129796E-3,2.8725022E-3],"split_indices":[1,5,0,7,1,0,0,0,0],"split_type":[0,0,0,0,0,0,0,0,0],"sum_hessian":[1.0758163E2,8.91006E1,1.8481028E1,2.647062E1,6.2629982E1,2.1372578E1,5.0980415E0,1.5627321E1,4.700266E1],"tree_param":{"num_deleted":"0","num_feature":"8","num_nodes":"9","size_leaf_vector":"1"}},{"base_weights":[3.7332363E-2,-3.1358185E-1,1.6714336E-2,-1.0035739E0,-4.221658E-3,-1.0546082E-2,6.712368E-4,-6.897382E-3,2.510685E-3],"categories":[],"categories_nodes":[],"categories_segments":[],"categories_sizes":[],"default_left":[0,0,0,0,0,0,0,0,0],"id":29,"left_children":[1,3,-1,5,7,-1,-1,-1,-1],"loss_changes":[6.486344E1,1.9745853E1,0E0,1.7723503E0,1.1822907E1,0E0,0E0,0E0,0E0],"parents":[2147483647,0,0,1,1,3,3,4,4],"right_children":[2,4,-1,6,8,-1,-1,-1,-1],"split_conditions":[1.0810462E0,-5.185628E-1,1.6714336E-2,6.6881084E-1,-6.630265E-1,-1.0546082E-2,6.712368E-4,-6.897382E-3,2.510685E-3],"split_indices":[1,5,0,1,1,0,0,0,0],"split_type":[0,0,0,0,0,0,0,0,0],"sum_hessian":[1.10007126E2,9.150738E1,1.8499746E1,2.7185028E1,6.432235E1,2.605888E1,1.1261474E0,1.6867641E1,4.7454704E1],"tree_param":{"num_deleted":"0","num_feature":"8","num_nodes":"9","size_leaf_vector":"1"}},{"base_weights":[3.8579557E-2,-7.074922E-1,4.525972E-1,-1.0334742E0,-1.1197697E-1,-1.5702736E-1,7.551274E-1,-1.0914851E-2,8.280405E-4,2.6701225E-3,-8.156564E-3,-6.9310325E-3,7.2370498E-3,3.0081966E-3,1.1626249E-2],"categories":[],"categories_nodes":[],"categories_segments":[],"categories_sizes":[],"default_left":[0,0,0,0,0,0,0,0,0,0,0,0,0,0,0],"id":30,"left_children":[1,3,5,7,9,11,13,-1,-1,-1,-1,-1,-1,-1,-1],"loss_changes":[3.5701817E1,7.714369E0,1.3956804E1,1.94273E0,4.7481565E0,1.2932263E1,8.600889E0,0E0,0E0,0E0,0E0,0E0,0E0,0E0,0E0],"parents":[2147483647,0,0,1,1,2,2,3,3,4,4,5,5,6,6],"right_children":[2,4,6,8,10,12,14,-1,-1,-1,-1,-1,-1,-1,-1],"split_conditions":[-2.639466E-1,-1.1556773E-1,-5.384437E-1,7.714908E-1,1.7450866E0,6.526717E-1,-2.4975924E-1,-1.0914851E-2,8.280405E-4,2.6701225E-3,-8.156564E-3,-6.9310325E-3,7.2370498E-3,3.0081966E-3,1.1626249E-2],"split_indices":[5,7,7,3,7,5,6,0,0,0,0,0,0,0,0],"split_type":[0,0,0,0,0,0,0,0,0,0,0,0,0,0,0],"sum_hessian":[1.1260971E2,3.972297E1,7.2886734E1,2.4849442E1,1.4873529E1,2.4303652E1,4.8583088E1,2.3738686E1,1.1107551E0,1.0179659E1,4.6938705E0,1.5377138E1,8.926514E0,2.4321E1,2.4262089E1],"tree_param":{"num_deleted":"0","num_feature":"8","num_nodes":"15","size_leaf_vector":"1"}},{"base_weights":[-2.8898269E-2,-6.091419E-1,8.4469247E-1,-9.8954046E-1,-1.4508736E-1,3.8236842E-1,1.3610569E0,-1.1204596E-2,-2.4969568E-3,-9.675602E-3,2.0791579E-3,7.0435717E-4,9.1076745E-3,1.4487823E-2,-0E0],"categories":[],"categories_nodes":[],"categories_segments":[],"categories_sizes":[],"default_left":[0,0,0,0,0,0,0,0,0,0,0,0,0,0,0],"id":31,"left_children":[1,3,5,7,9,11,13,-1,-1,-1,-1,-1,-1,-1,-1],"loss_changes":[5.830194E1,1.1880751E1,9.996788E0,3.0884323E0,9.968421E0,4.1558046E0,2.6273994E0,0E0,0E0,0E0,0E0,0E0,0E0,0E0,0E0],"parents":[2147483647,0,0,1,1,2,2,3,3,4,4,5,5,6,6],"right_children":[2,4,6,8,10,12,14,-1,-1,-1,-1,-1,-1,-1,-1],"split_conditions":[2.2486505E-1,-3.692933E-1,1.0810462E0,5.531952E-1,-7.581578E-1,7.714908E-1,2.5062633E0,-1.1204596E-2,-2.4969568E-3,-9.675602E-3,2.0791579E-3,7.0435717E-4,9.1076745E-3,1.4487823E-2,-0E0],"split_indices":[1,7,1,6,1,3,7,0,0,0,0,0,0,0,0],"split_type":[0,0,0,0,0,0,0,0,0,0,0,0,0,0,0],"sum_hessian":[1.12041534E2,6.766598E1,4.4375557E1,3.613282E1,3.153316E1,2.4892557E1,1.9483E1,2.9929766E1,6.2030554E0,8.770462E0,2.2762695E1,1.684032E1,8.0522375E0,1.8270601E1,1.2123988E0],"tree_param":{"num_deleted":"0","num_feature":"8","num_nodes":"15","size_leaf_vector":"1"}},{"base_weights":[-2.1339232E-2,-7.129737E-1,4.1155392E-1,-9.087338E-1,4.175278E-1,1.5006682E-1,9.892504E-1,-1.0558007E-2,-0E0,8.354393E-3,-6.5779155E-3,5.654168E-3,-4.7426E-3,-3.1832804E-3,1.1609514E-2],"categories":[],"categories_nodes":[],"categories_segments":[],"categories_sizes":[],"default_left":[0,0,0,0,0,0,0,0,0,0,0,0,0,0,0],"id":32,"left_children":[1,3,5,7,9,11,13,-1,-1,-1,-1,-1,-1,-1,-1],"loss_changes":[3.3436657E1,1.01397915E1,1.0023492E1,4.951292E0,4.1239014E0,1.3143644E1,5.3494987E0,0E0,0E0,0E0,0E0,0E0,0E0,0E0,0E0],"parents":[2147483647,0,0,1,1,2,2,3,3,4,4,5,5,6,6],"right_children":[2,4,6,8,10,12,14,-1,-1,-1,-1,-1,-1,-1,-1],"split_conditions":[-2.2575417E-1,1.2625237E0,6.069169E-1,6.45609E-1,1.8296617E0,-5.9142435E-1,7.720048E-2,-1.0558007E-2,-0E0,8.354393E-3,-6.5779155E-3,5.654168E-3,-4.7426E-3,-3.1832804E-3,1.1609514E-2],"split_indices":[5,0,4,7,7,4,3,0,0,0,0,0,0,0,0],"split_type":[0,0,0,0,0,0,0,0,0,0,0,0,0,0,0],"sum_hessian":[1.0860673E2,4.152409E1,6.7082634E1,3.572123E1,5.802858E0,4.759989E1,1.9482742E1,3.0515781E1,5.205449E0,4.4867444E0,1.3161131E0,2.8764954E1,1.8834938E1,2.0450954E0,1.7437647E1],"tree_param":{"num_deleted":"0","num_feature":"8","num_nodes":"15","size_leaf_vector":"1"}},{"base_weights":[4.7851745E-2,-5.1786196E-1,1.0249974E0,-8.9367276E-1,3.6475353E-2,4.14822E-1,1.4465618E0,-9.499239E-3,5.1707462E-3,-3.911892E-3,4.3605915E-3,5.9071166E-4,1.05432235E-2,1.5264675E-2,-0E0],"categories":[],"categories_nodes":[],"categories_segments":[],"categories_sizes":[],"default_left":[0,0,0,0,0,0,0,0,0,0,0,0,0,0,0],"id":33,"left_children":[1,3,5,7,9,11,13,-1,-1,-1,-1,-1,-1,-1,-1],"loss_changes":[6.3607178E1,1.5308481E1,9.768177E0,4.2379875E0,5.5172615E0,4.218297E0,2.936554E0,0E0,0E0,0E0,0E0,0E0,0E0,0E0,0E0],"parents":[2147483647,0,0,1,1,2,2,3,3,4,4,5,5,6,6],"right_children":[2,4,6,8,10,12,14,-1,-1,-1,-1,-1,-1,-1,-1],"split_conditions":[2.8828588E-1,-2.0014292E-1,1.0810462E0,9.60541E-1,-4.093432E-1,7.714908E-1,2.5062633E0,-9.499239E-3,5.1707462E-3,-3.911892E-3,4.3605915E-3,5.9071166E-4,1.05432235E-2,1.5264675E-2,-0E0],"split_indices":[1,7,1,0,1,3,7,0,0,0,0,0,0,0,0],"split_type":[0,0,0,0,0,0,0,0,0,0,0,0,0,0,0],"sum_hessian":[1.1203473E2,7.133714E1,4.069759E1,4.207484E1,2.9262299E1,1.794177E1,2.2755821E1,4.1000866E1,1.0739754E0,1.4028838E1,1.5233461E1,1.2681849E1,5.2599216E0,2.154312E1,1.2127005E0],"tree_param":{"num_deleted":"0","num_feature":"8","num_nodes":"15","size_leaf_vector":"1"}},{"base_weights":[-3.0533815E-2,-6.2978005E-1,8.144367E-1,-9.6314096E-1,-1.2503907E-1,3.5684592E-1,1.433257E0,-1.0949882E-2,-1.6495753E-3,-3.3664021E-3,7.604636E-3,-2.9331692E-3,7.3894802E-3,1.5130551E-2,3.950097E-3],"categories":[],"categories_nodes":[],"categories_segments":[],"categories_sizes":[],"default_left":[0,0,0,0,0,0,0,0,0,0,0,0,0,0,0],"id":34,"left_children":[1,3,5,7,9,11,13,-1,-1,-1,-1,-1,-1,-1,-1],"loss_changes":[5.5752052E1,1.0557953E1,1.1982037E1,3.6528664E0,5.4916983E0,7.409506E0,4.7180176E-1,0E0,0E0,0E0,0E0,0E0,0E0,0E0,0E0],"parents":[2147483647,0,0,1,1,2,2,3,3,4,4,5,5,6,6],"right_children":[2,4,6,8,10,12,14,-1,-1,-1,-1,-1,-1,-1,-1],"split_conditions":[1.2973382E-1,-2.8471813E-1,1.0810462E0,5.7413745E-1,5.69759E-1,-4.9216056E-1,2.0833874E0,-1.0949882E-2,-1.6495753E-3,-3.3664021E-3,7.604636E-3,-2.9331692E-3,7.3894802E-3,1.5130551E-2,3.950097E-3],"split_indices":[1,7,1,2,4,6,7,0,0,0,0,0,0,0,0],"split_type":[0,0,0,0,0,0,0,0,0,0,0,0,0,0,0],"sum_hessian":[1.07123764E2,6.2967834E1,4.4155926E1,3.6982197E1,2.598564E1,2.6837408E1,1.7318518E1,3.1153135E1,5.8290615E0,2.1815298E1,4.170341E0,9.966248E0,1.687116E1,1.5355989E1,1.9625283E0],"tree_param":{"num_deleted":"0","num_feature":"8","num_nodes":"15","size_leaf_vector":"1"}},{"base_weights":[-4.2609017E-2,-3.606008E-1,1.3350228E0,-9.450147E-1,2.1109618E-2,1.4181088E0,-0E0,-1.109168E-2,-1.8964474E-3,-8.858763E-3,2.6838928E-3,1.5285054E-2,4.2578266E-3],"categories":[],"categories_nodes":[],"categories_segments":[],"categories_sizes":[],"default_left":[0,0,0,0,0,0,0,0,0,0,0,0,0],"id":35,"left_children":[1,3,5,7,9,11,-1,-1,-1,-1,-1,-1,-1],"loss_changes":[5.098033E1,2.1232193E1,2.5501823E0,4.2074776E0,1.3439049E1,1.0854454E0,0E0,0E0,0E0,0E0,0E0,0E0,0E0],"parents":[2147483647,0,0,1,1,2,2,3,3,4,4,5,5],"right_children":[2,4,6,8,10,12,-1,-1,-1,-1,-1,-1,-1],"split_conditions":[1.0810462E0,-2.894082E-1,2.5062633E0,8.147594E-1,-8.8499945E-1,2.2975998E0,-0E0,-1.109168E-2,-1.8964474E-3,-8.858763E-3,2.6838928E-3,1.5285054E-2,4.2578266E-3],"split_indices":[1,5,7,7,1,4,0,0,0,0,0,0,0],"split_type":[0,0,0,0,0,0,0,0,0,0,0,0,0],"sum_hessian":[1.1344741E2,9.3130516E1,2.0316889E1,3.602428E1,5.710624E1,1.9103405E1,1.2134836E0,2.8907328E1,7.1169543E0,1.1317427E1,4.578881E1,1.6370876E1,2.7325294E0],"tree_param":{"num_deleted":"0","num_feature":"8","num_nodes":"13","size_leaf_vector":"1"}},{"base_weights":[6.0792875E-2,-4.4385007E-1,1.0653539E0,-8.627859E-1,9.129289E-2,1.858836E-1,1.3219391E0,-9.6680885E-3,1.2027447E-2,-9.271298E-3,3.1377561E-3,-6.7677186E-3,6.01922E-3,8.302867E-3,1.5677284E-2],"categories":[],"categories_nodes":[],"categories_segments":[],"categories_sizes":[],"default_left":[0,0,0,0,0,0,0,0,0,0,0,0,0,0,0],"id":36,"left_children":[1,3,5,7,9,11,13,-1,-1,-1,-1,-1,-1,-1,-1],"loss_changes":[5.653932E1,1.6833904E1,7.8957825E0,1.0718298E1,8.042559E0,4.2844067E0,1.256012E0,0E0,0E0,0E0,0E0,0E0,0E0,0E0,0E0],"parents":[2147483647,0,0,1,1,2,2,3,3,4,4,5,5,6,6],"right_children":[2,4,6,8,10,12,14,-1,-1,-1,-1,-1,-1,-1,-1],"split_conditions":[4.1512755E-1,-2.8471813E-1,-2.512158E-1,1.7093289E0,-6.331401E-1,-5.493724E-1,1.1761775E0,-9.6680885E-3,1.2027447E-2,-9.271298E-3,3.1377561E-3,-6.7677186E-3,6.01922E-3,8.302867E-3,1.5677284E-2],"split_indices":[1,7,5,5,5,0,1,0,0,0,0,0,0,0,0],"split_type":[0,0,0,0,0,0,0,0,0,0,0,0,0,0,0],"sum_hessian":[1.08507835E2,7.2716354E1,3.579148E1,4.037631E1,3.2340046E1,8.75597E0,2.7035513E1,3.924613E1,1.130178E0,4.865908E0,2.7474138E1,2.4647963E0,6.291174E0,1.1335348E1,1.5700165E1],"tree_param":{"num_deleted":"0","num_feature":"8","num_nodes":"15","size_leaf_vector":"1"}},{"base_weights":[1.0585281E-2,-6.2257534E-1,9.761919E-1,-9.8675364E-1,-2.3238826E-1,4.9680956E-2,1.2742914E0,-1.0650801E-2,-1.9573339E-3,-1.0190601E-2,3.494296E-5,-4.6913666E-3,6.066916E-3,9.053178E-3,1.5770588E-2],"categories":[],"categories_nodes":[],"categories_segments":[],"categories_sizes":[],"default_left":[0,0,0,0,0,0,0,0,0,0,0,0,0,0,0],"id":37,"left_children":[1,3,5,7,9,11,13,-1,-1,-1,-1,-1,-1,-1,-1],"loss_changes":[6.854495E1,9.144398E0,1.2044964E1,1.6917534E0,6.554165E0,4.0411186E0,1.3497696E0,0E0,0E0,0E0,0E0,0E0,0E0,0E0,0E0],"parents":[2147483647,0,0,1,1,2,2,3,3,4,4,5,5,6,6],"right_children":[2,4,6,8,10,12,14,-1,-1,-1,-1,-1,-1,-1,-1],"split_conditions":[2.2486505E-1,-4.538685E-1,-2.512158E-1,6.8290645E-1,-6.7133254E-1,7.956525E-1,1.1761775E0,-1.0650801E-2,-1.9573339E-3,-1.0190601E-2,3.494296E-5,-4.6913666E-3,6.066916E-3,9.053178E-3,1.5770588E-2],"split_indices":[1,7,5,2,5,1,1,0,0,0,0,0,0,0,0],"split_type":[0,0,0,0,0,0,0,0,0,0,0,0,0,0,0],"sum_hessian":[1.0906546E2,6.61315E1,4.293396E1,3.288699E1,3.3244514E1,1.0958802E1,3.1975159E1,2.9336035E1,3.5509548E0,6.617774E0,2.662674E1,5.7034945E0,5.2553077E0,1.7258383E1,1.4716775E1],"tree_param":{"num_deleted":"0","num_feature":"8","num_nodes":"15","size_leaf_vector":"1"}},{"base_weights":[-3.6463264E-2,-4.7609362E-1,9.135206E-1,-9.6311784E-1,-1.6755497E-1,3.5225797E-1,1.3137904E0,1.6417956E-3,-1.0171501E-2,-4.1880384E-3,3.9566355E-3,5.2135186E-3,-2.4134174E-3,1.370195E-2,1.7796906E-3],"categories":[],"categories_nodes":[],"categories_segments":[],"categories_sizes":[],"default_left":[0,0,0,0,0,0,0,0,0,0,0,0,0,0,0],"id":38,"left_children":[1,3,5,7,9,11,13,-1,-1,-1,-1,-1,-1,-1,-1],"loss_changes":[4.6462955E1,1.10825405E1,7.041977E0,2.1069508E0,7.119408E0,1.9027386E0,7.5302505E-1,0E0,0E0,0E0,0E0,0E0,0E0,0E0,0E0],"parents":[2147483647,0,0,1,1,2,2,3,3,4,4,5,5,6,6],"right_children":[2,4,6,8,10,12,14,-1,-1,-1,-1,-1,-1,-1,-1],"split_conditions":[4.1512755E-1,-6.630265E-1,1.0810462E0,-2.0265744E0,2.1080329E-1,9.5991665E-1,2.7681375E0,1.6417956E-3,-1.0171501E-2,-4.1880384E-3,3.9566355E-3,5.2135186E-3,-2.4134174E-3,1.370195E-2,1.7796906E-3],"split_indices":[1,1,1,1,6,4,6,0,0,0,0,0,0,0,0],"split_type":[0,0,0,0,0,0,0,0,0,0,0,0,0,0,0],"sum_hessian":[1.0829341E2,7.4616264E1,3.367714E1,2.7578127E1,4.703814E1,1.529718E1,1.8379961E1,1.0368735E0,2.6541254E1,3.291645E1,1.4121691E1,1.21789055E1,3.1182745E0,1.7131645E1,1.2483152E0],"tree_param":{"num_deleted":"0","num_feature":"8","num_nodes":"15","size_leaf_vector":"1"}},{"base_weights":[-4.3384932E-2,-6.950908E-1,8.4542894E-1,-1.0568995E0,-3.2150093E-1,3.3685657E-1,1.4821851E0,-1.232283E-2,-5.234359E-3,-9.667586E-3,-1.2422237E-3,-1.17680895E-4,9.020365E-3,1.5395438E-2,2.4894695E-3],"categories":[],"categories_nodes":[],"categories_segments":[],"categories_sizes":[],"default_left":[0,0,0,0,0,0,0,0,0,0,0,0,0,0,0],"id":39,"left_children":[1,3,5,7,9,11,13,-1,-1,-1,-1,-1,-1,-1,-1],"loss_changes":[6.1474148E1,7.6323853E0,1.3601604E1,1.6943207E0,3.8388646E0,5.4205E0,6.1841965E-1,0E0,0E0,0E0,0E0,0E0,0E0,0E0,0E0],"parents":[2147483647,0,0,1,1,2,2,3,3,4,4,5,5,6,6],"right_children":[2,4,6,8,10,12,14,-1,-1,-1,-1,-1,-1,-1,-1],"split_conditions":[1.2973382E-1,-4.538685E-1,1.0810462E0,5.821389E-1,-6.7133254E-1,6.45609E-1,2.337113E0,-1.232283E-2,-5.234359E-3,-9.667586E-3,-1.2422237E-3,-1.17680895E-4,9.020365E-3,1.5395438E-2,2.4894695E-3],"split_indices":[1,7,1,3,5,7,7,0,0,0,0,0,0,0,0],"split_type":[0,0,0,0,0,0,0,0,0,0,0,0,0,0,0],"sum_hessian":[1.0313222E2,5.975641E1,4.3375805E1,2.8827118E1,3.0929293E1,2.5477608E1,1.7898197E1,2.007484E1,8.752278E0,5.7534223E0,2.5175869E1,1.6556658E1,8.92095E0,1.666925E1,1.228947E0],"tree_param":{"num_deleted":"0","num_feature":"8","num_nodes":"15","size_leaf_vector":"1"}},{"base_weights":[-4.1868415E-2,-5.9444726E-1,7.579211E-1,-1.019328E0,-9.1688484E-2,3.261955E-1,1.332465E0,-0E0,-1.06304195E-2,-7.5786333E-3,1.02977E-3,-9.193031E-3,5.751351E-3,1.3944964E-2,1.7012409E-3],"categories":[],"categories_nodes":[],"categories_segments":[],"categories_sizes":[],"default_left":[0,0,0,0,0,0,0,0,0,0,0,0,0,0,0],"id":40,"left_children":[1,3,5,7,9,11,13,-1,-1,-1,-1,-1,-1,-1,-1],"loss_changes":[4.92169E1,1.3824194E1,1.0463028E1,1.6481781E0,4.324108E0,9.456465E0,8.523178E-1,0E0,0E0,0E0,0E0,0E0,0E0,0E0,0E0],"parents":[2147483647,0,0,1,1,2,2,3,3,4,4,5,5,6,6],"right_children":[2,4,6,8,10,12,14,-1,-1,-1,-1,-1,-1,-1,-1],"split_conditions":[2.2486505E-1,-3.692933E-1,1.2078879E0,-1.710012E0,-9.1670984E-1,-7.406219E-1,2.4681656E0,-0E0,-1.06304195E-2,-7.5786333E-3,1.02977E-3,-9.193031E-3,5.751351E-3,1.3944964E-2,1.7012409E-3],"split_indices":[1,7,1,2,1,6,6,0,0,0,0,0,0,0,0],"split_type":[0,0,0,0,0,0,0,0,0,0,0,0,0,0,0],"sum_hessian":[1.0837166E2,6.439261E1,4.3979046E1,3.395618E1,3.0436428E1,2.655253E1,1.7426517E1,1.3975748E0,3.255861E1,6.0175214E0,2.4418907E1,3.6832776E0,2.2869253E1,1.617753E1,1.2489876E0],"tree_param":{"num_deleted":"0","num_feature":"8","num_nodes":"15","size_leaf_vector":"1"}},{"base_weights":[-5.007576E-2,-7.724819E-1,3.5865808E-1,-9.611905E-1,2.4068116E-1,2.3908103E-3,8.9577806E-1,-1.1395567E-2,-6.4442055E-3,-1.8359534E-3,1.1542176E-2,-1.3848447E-3,1.3751223E-2,4.381827E-3,1.169536E-2],"categories":[],"categories_nodes":[],"categories_segments":[],"categories_sizes":[],"default_left":[0,0,0,0,0,0,0,0,0,0,0,0,0,0,0],"id":41,"left_children":[1,3,5,7,9,11,13,-1,-1,-1,-1,-1,-1,-1,-1],"loss_changes":[3.3075893E1,8.158979E0,1.358689E1,6.699047E-1,3.3112583E0,9.0334835E0,2.6272564E0,0E0,0E0,0E0,0E0,0E0,0E0,0E0,0E0],"parents":[2147483647,0,0,1,1,2,2,3,3,4,4,5,5,6,6],"right_children":[2,4,6,8,10,12,14,-1,-1,-1,-1,-1,-1,-1,-1],"split_conditions":[-2.894082E-1,1.2625237E0,1.5020296E-1,3.0292349E-2,7.9167545E-1,1.7093289E0,2.4783039E-1,-1.1395567E-2,-6.4442055E-3,-1.8359534E-3,1.1542176E-2,-1.3848447E-3,1.3751223E-2,4.381827E-3,1.169536E-2],"split_indices":[5,0,6,2,2,5,2,0,0,0,0,0,0,0,0],"split_type":[0,0,0,0,0,0,0,0,0,0,0,0,0,0,0],"sum_hessian":[1.0897084E2,3.8982307E1,6.998853E1,3.3009674E1,5.9726324E0,4.30961E1,2.6892433E1,1.8423807E1,1.4585867E1,4.8221455E0,1.1504867E0,4.024212E1,2.8539805E0,1.1663213E1,1.5229219E1],"tree_param":{"num_deleted":"0","num_feature":"8","num_nodes":"15","size_leaf_vector":"1"}},{"base_weights":[1.6037382E-2,-4.8818585E-1,8.8878286E-1,-9.6773636E-1,-1.5026692E-1,-2.3261838E-2,1.2227479E0,-1.1343773E-2,1.0265186E-3,-6.4772754E-3,1.4681582E-3,-4.2831353E-3,8.1561515E-3,8.322823E-3,1.50044095E-2],"categories":[],"categories_nodes":[],"categories_segments":[],"categories_sizes":[],"default_left":[0,0,0,0,0,0,0,0,0,0,0,0,0,0,0],"id":42,"left_children":[1,3,5,7,9,11,13,-1,-1,-1,-1,-1,-1,-1,-1],"loss_changes":[4.896103E1,1.1081423E1,1.258115E1,5.3990746E0,6.578294E0,4.671318E0,1.141182E0,0E0,0E0,0E0,0E0,0E0,0E0,0E0,0E0],"parents":[2147483647,0,0,1,1,2,2,3,3,4,4,5,5,6,6],"right_children":[2,4,6,8,10,12,14,-1,-1,-1,-1,-1,-1,-1,-1],"split_conditions":[2.8828588E-1,-2.894082E-1,-2.2575417E-1,1.2625237E0,-6.313161E-1,1.2078879E0,1.1761775E0,-1.1343773E-2,1.0265186E-3,-6.4772754E-3,1.4681582E-3,-4.2831353E-3,8.1561515E-3,8.322823E-3,1.50044095E-2],"split_indices":[1,5,5,0,1,1,1,0,0,0,0,0,0,0,0],"split_type":[0,0,0,0,0,0,0,0,0,0,0,0,0,0,0],"sum_hessian":[1.0819024E2,6.891905E1,3.9271183E1,2.7211205E1,4.170785E1,1.0819543E1,2.8451641E1,2.3548813E1,3.6623914E0,1.5058604E1,2.6649246E1,7.8719234E0,2.94762E0,1.4466306E1,1.3985336E1],"tree_param":{"num_deleted":"0","num_feature":"8","num_nodes":"15","size_leaf_vector":"1"}},{"base_weights":[2.8897544E-2,-4.3423182E-1,8.9549834E-1,-8.590584E-1,3.7778977E-2,1.1915569E-1,1.162794E0,-1.1393764E-2,-5.570234E-3,-5.691098E-3,9.367235E-3,4.2154747E-3,-5.35043E-3,4.4522164E-3,1.3332901E-2],"categories":[],"categories_nodes":[],"categories_segments":[],"categories_sizes":[],"default_left":[0,0,0,0,0,0,0,0,0,0,0,0,0,0,0],"id":43,"left_children":[1,3,5,7,9,11,13,-1,-1,-1,-1,-1,-1,-1,-1],"loss_changes":[4.4696465E1,1.4666966E1,7.71677E0,2.1233845E0,2.029325E1,2.6427197E0,2.4307709E0,0E0,0E0,0E0,0E0,0E0,0E0,0E0,0E0],"parents":[2147483647,0,0,1,1,2,2,3,3,4,4,5,5,6,6],"right_children":[2,4,6,8,10,12,14,-1,-1,-1,-1,-1,-1,-1,-1],"split_conditions":[4.1512755E-1,4.159284E-2,-2.512158E-1,-6.331401E-1,4.7182392E-2,2.0474325E-1,-5.4064083E-1,-1.1393764E-2,-5.570234E-3,-5.691098E-3,9.367235E-3,4.2154747E-3,-5.35043E-3,4.4522164E-3,1.3332901E-2],"split_indices":[1,5,5,5,6,6,6,0,0,0,0,0,0,0,0],"split_type":[0,0,0,0,0,0,0,0,0,0,0,0,0,0,0],"sum_hessian":[1.08297554E2,7.099132E1,3.7306232E1,3.68273E1,3.416402E1,1.0206096E1,2.7100138E1,1.677182E1,2.005548E1,2.0657207E1,1.3506812E1,7.4491553E0,2.7569404E0,6.3554153E0,2.0744722E1],"tree_param":{"num_deleted":"0","num_feature":"8","num_nodes":"15","size_leaf_vector":"1"}},{"base_weights":[-2.600693E-2,-5.72007E-1,3.9504033E-1,-1.0495849E0,-1.2952949E-1,-6.8857104E-1,6.109502E-1,-1.0808064E-2,-1.2202801E-3,-5.498384E-3,4.776267E-3,-8.851469E-3,-2.9987236E-3,2.9026635E-3,1.0846705E-2],"categories":[],"categories_nodes":[],"categories_segments":[],"categories_sizes":[],"default_left":[0,0,0,0,0,0,0,0,0,0,0,0,0,0,0],"id":44,"left_children":[1,3,5,7,9,11,13,-1,-1,-1,-1,-1,-1,-1,-1],"loss_changes":[2.4188286E1,9.367313E0,1.4500369E1,3.1120872E-1,6.9392138E0,2.8433752E-1,7.036171E0,0E0,0E0,0E0,0E0,0E0,0E0,0E0,0E0],"parents":[2147483647,0,0,1,1,2,2,3,3,4,4,5,5,6,6],"right_children":[2,4,6,8,10,12,14,-1,-1,-1,-1,-1,-1,-1,-1],"split_conditions":[-3.692933E-1,-1.1117688E-1,-6.586017E-1,1.4925003E0,1.1081274E-1,9.839098E-1,1.5323298E-1,-1.0808064E-2,-1.2202801E-3,-5.498384E-3,4.776267E-3,-8.851469E-3,-2.9987236E-3,2.9026635E-3,1.0846705E-2],"split_indices":[7,5,5,6,6,7,6,0,0,0,0,0,0,0,0],"split_type":[0,0,0,0,0,0,0,0,0,0,0,0,0,0,0],"sum_hessian":[1.0216458E2,4.435117E1,5.7813416E1,2.02311E1,2.412007E1,8.982918E0,4.8830498E1,1.9228243E1,1.0028576E0,1.4434189E1,9.685881E0,4.522623E0,4.460295E0,3.0687128E1,1.814337E1],"tree_param":{"num_deleted":"0","num_feature":"8","num_nodes":"15","size_leaf_vector":"1"}},{"base_weights":[3.4924054E-3,-5.928658E-1,4.0876907E-1,-7.9465675E-1,6.798425E-1,-4.485127E-1,5.9986454E-1,-8.978017E-3,3.252417E-3,1.6601078E-3,8.254591E-3,-5.8286325E-3,3.0215469E-3,5.9491943E-4,8.967146E-3],"categories":[],"categories_nodes":[],"categories_segments":[],"categories_sizes":[],"default_left":[0,0,0,0,0,0,0,0,0,0,0,0,0,0,0],"id":45,"left_children":[1,3,5,7,9,11,13,-1,-1,-1,-1,-1,-1,-1,-1],"loss_changes":[2.6839441E1,1.2344548E1,1.1272682E1,5.0563526E0,2.1013546E-1,1.5871468E0,8.63323E0,0E0,0E0,0E0,0E0,0E0,0E0,0E0,0E0],"parents":[2147483647,0,0,1,1,2,2,3,3,4,4,5,5,6,6],"right_children":[2,4,6,8,10,12,14,-1,-1,-1,-1,-1,-1,-1,-1],"split_conditions":[-4.538685E-1,1.2764814E0,-5.8221686E-1,1.3773597E0,-8.7674445E-1,8.4606E-1,-4.800405E-1,-8.978017E-3,3.252417E-3,1.6601078E-3,8.254591E-3,-5.8286325E-3,3.0215469E-3,5.9491943E-4,8.967146E-3],"split_indices":[7,5,5,6,7,2,6,0,0,0,0,0,0,0,0],"split_type":[0,0,0,0,0,0,0,0,0,0,0,0,0,0,0],"sum_hessian":[1.081211E2,4.3366676E1,6.4754425E1,3.7985916E1,5.380759E0,1.1339575E1,5.3414852E1,3.513654E1,2.8493762E0,2.0486357E0,3.3321233E0,1.0015566E1,1.3240092E0,1.9696928E1,3.3717922E1],"tree_param":{"num_deleted":"0","num_feature":"8","num_nodes":"15","size_leaf_vector":"1"}},{"base_weights":[-8.305726E-3,-4.8627046E-1,3.2907972E-1,-7.8676105E-1,4.8078966E-1,4.98165E-2,1.0813242E0,-9.679461E-3,3.3326852E-4,7.177916E-3,8.436755E-5,-5.645889E-3,2.2729354E-3,-2.8488722E-3,1.2082684E-2],"categories":[],"categories_nodes":[],"categories_segments":[],"categories_sizes":[],"default_left":[0,0,0,0,0,0,0,0,0,0,0,0,0,0,0],"id":46,"left_children":[1,3,5,7,9,11,13,-1,-1,-1,-1,-1,-1,-1,-1],"loss_changes":[1.8213951E1,1.4200383E1,1.3682279E1,5.5445347E0,1.2559571E0,5.593482E0,3.6807766E0,0E0,0E0,0E0,0E0,0E0,0E0,0E0,0E0],"parents":[2147483647,0,0,1,1,2,2,3,3,4,4,5,5,6,6],"right_children":[2,4,6,8,10,12,14,-1,-1,-1,-1,-1,-1,-1,-1],"split_conditions":[-4.538685E-1,7.714908E-1,5.8833796E-1,5.895554E-1,5.69759E-1,-8.254624E-1,-3.0150333E-1,-9.679461E-3,3.3326852E-4,7.177916E-3,8.436755E-5,-5.645889E-3,2.2729354E-3,-2.8488722E-3,1.2082684E-2],"split_indices":[7,3,4,6,4,6,3,0,0,0,0,0,0,0,0],"split_type":[0,0,0,0,0,0,0,0,0,0,0,0,0,0,0],"sum_hessian":[1.09862915E2,4.530915E1,6.455377E1,3.4860237E1,1.0448911E1,4.8340218E1,1.621355E1,2.8430481E1,6.429758E0,6.297857E0,4.151054E0,9.974475E0,3.836574E1,1.1527951E0,1.5060756E1],"tree_param":{"num_deleted":"0","num_feature":"8","num_nodes":"15","size_leaf_vector":"1"}},{"base_weights":[-1.4946973E-2,-6.226064E-1,3.6734006E-1,-1.0595921E0,-9.62005E-2,-6.736769E-1,5.6785405E-1,-1.1234118E-2,5.7905156E-4,-7.6095895E-3,4.0031886E-3,-8.194759E-3,9.96286E-4,6.879894E-4,8.847114E-3],"categories":[],"categories_nodes":[],"categories_segments":[],"categories_sizes":[],"default_left":[0,0,0,0,0,0,0,0,0,0,0,0,0,0,0],"id":47,"left_children":[1,3,5,7,9,11,13,-1,-1,-1,-1,-1,-1,-1,-1],"loss_changes":[2.6268799E1,9.786995E0,1.5024876E1,1.8895035E0,7.616338E0,1.5242791E0,9.140812E0,0E0,0E0,0E0,0E0,0E0,0E0,0E0,0E0],"parents":[2147483647,0,0,1,1,2,2,3,3,4,4,5,5,6,6],"right_children":[2,4,6,8,10,12,14,-1,-1,-1,-1,-1,-1,-1,-1],"split_conditions":[-4.538685E-1,-1.709788E-1,-6.586017E-1,1.2764814E0,-1.1117688E-1,4.9544328E-1,-4.951906E-1,-1.1234118E-2,5.7905156E-4,-7.6095895E-3,4.0031886E-3,-8.194759E-3,9.96286E-4,6.879894E-4,8.847114E-3],"split_indices":[7,6,5,5,5,4,6,0,0,0,0,0,0,0,0],"split_type":[0,0,0,0,0,0,0,0,0,0,0,0,0,0,0],"sum_hessian":[1.0999451E2,4.2213387E1,6.778112E1,2.2131805E1,2.0081581E1,1.0294803E1,5.7486317E1,2.1013296E1,1.1185106E0,8.330681E0,1.1750901E1,8.695173E0,1.5996298E0,2.3156218E1,3.4330097E1],"tree_param":{"num_deleted":"0","num_feature":"8","num_nodes":"15","size_leaf_vector":"1"}},{"base_weights":[-6.490281E-4,-5.6615555E-1,8.2117444E-1,-9.675497E-1,-9.671872E-2,4.168935E-1,1.2195461E0,-1.0752809E-2,-1.8227166E-4,-2.6537648E-3,8.721818E-3,6.111737E-4,1.0153666E-2,1.30043E-2,-2.2671172E-4],"categories":[],"categories_nodes":[],"categories_segments":[],"categories_sizes":[],"default_left":[0,0,0,0,0,0,0,0,0,0,0,0,0,0,0],"id":48,"left_children":[1,3,5,7,9,11,13,-1,-1,-1,-1,-1,-1,-1,-1],"loss_changes":[5.1057182E1,1.20354595E1,6.278034E0,3.4260674E0,5.487286E0,5.0382547E0,2.3449974E0,0E0,0E0,0E0,0E0,0E0,0E0,0E0,0E0],"parents":[2147483647,0,0,1,1,2,2,3,3,4,4,5,5,6,6],"right_children":[2,4,6,8,10,12,14,-1,-1,-1,-1,-1,-1,-1,-1],"split_conditions":[2.2486505E-1,-3.692933E-1,1.0810462E0,6.8290645E-1,5.8833796E-1,8.3460814E-1,2.5062633E0,-1.0752809E-2,-1.8227166E-4,-2.6537648E-3,8.721818E-3,6.111737E-4,1.0153666E-2,1.30043E-2,-2.2671172E-4],"split_indices":[1,7,1,2,4,3,7,0,0,0,0,0,0,0,0],"split_type":[0,0,0,0,0,0,0,0,0,0,0,0,0,0,0],"sum_hessian":[1.0691461E2,6.368235E1,4.3232258E1,3.335627E1,3.032608E1,2.3105145E1,2.0127113E1,2.968337E1,3.6728988E0,2.684543E1,3.48065E0,1.5632387E1,7.472758E0,1.8906284E1,1.2208295E0],"tree_param":{"num_deleted":"0","num_feature":"8","num_nodes":"15","size_leaf_vector":"1"}},{"base_weights":[3.4939222E-2,-4.4338286E-1,9.0738076E-1,-9.4203365E-1,-1.5682226E-1,1.4416644E-2,1.2486641E0,-1.0433782E-2,-1.5835848E-3,-4.7511496E-3,4.6173204E-3,-9.20872E-3,4.049918E-3,1.2856909E-2,1.5853001E-3],"categories":[],"categories_nodes":[],"categories_segments":[],"categories_sizes":[],"default_left":[0,0,0,0,0,0,0,0,0,0,0,0,0,0,0],"id":49,"left_children":[1,3,5,7,9,11,13,-1,-1,-1,-1,-1,-1,-1,-1],"loss_changes":[4.7095913E1,1.0074085E1,1.2030384E1,1.7087402E0,9.814512E0,5.1300263E0,7.133713E-1,0E0,0E0,0E0,0E0,0E0,0E0,0E0,0E0],"parents":[2147483647,0,0,1,1,2,2,3,3,4,4,5,5,6,6],"right_children":[2,4,6,8,10,12,14,-1,-1,-1,-1,-1,-1,-1,-1],"split_conditions":[2.8828588E-1,-3.912547E-1,-2.512158E-1,1.2625237E0,1.5323298E-1,-5.493724E-1,2.7954075E0,-1.0433782E-2,-1.5835848E-3,-4.7511496E-3,4.6173204E-3,-9.20872E-3,4.049918E-3,1.2856909E-2,1.5853001E-3],"split_indices":[1,5,5,0,6,0,6,0,0,0,0,0,0,0,0],"split_type":[0,0,0,0,0,0,0,0,0,0,0,0,0,0,0],"sum_hessian":[1.0979916E2,7.132035E1,3.847881E1,2.464864E1,4.667171E1,1.1153132E1,2.7325674E1,2.127294E1,3.375701E0,3.1151453E1,1.5520256E1,2.6101408E0,8.542992E0,2.6079075E1,1.2465994E0],"tree_param":{"num_deleted":"0","num_feature":"8","num_nodes":"15","size_leaf_vector":"1"}},{"base_weights":[-7.4619696E-2,-6.371345E-1,6.491287E-1,-7.084002E-1,8.965295E-3,3.0604714E-1,1.4262855E0,-8.869502E-3,-4.9207087E-5,-3.2395863E-3,6.3273767E-3,1.522705E-2,1.5533523E-3],"categories":[],"categories_nodes":[],"categories_segments":[],"categories_sizes":[],"default_left":[0,0,0,0,0,0,0,0,0,0,0,0,0],"id":50,"left_children":[1,3,5,7,-1,9,11,-1,-1,-1,-1,-1,-1],"loss_changes":[4.4684116E1,7.68149E0,1.197003E1,7.427492E0,0E0,7.603353E0,1.2176723E0,0E0,0E0,0E0,0E0,0E0,0E0],"parents":[2147483647,0,0,1,1,2,2,3,3,5,5,6,6],"right_children":[2,4,6,8,-1,10,12,-1,-1,-1,-1,-1,-1],"split_conditions":[1.2973382E-1,1.7093289E0,1.4298608E0,4.9259484E-1,8.965295E-3,-2.512158E-1,1.2267516E0,-8.869502E-3,-4.9207087E-5,-3.2395863E-3,6.3273767E-3,1.522705E-2,1.5533523E-3],"split_indices":[1,5,1,6,0,5,2,0,0,0,0,0,0],"split_type":[0,0,0,0,0,0,0,0,0,0,0,0,0],"sum_hessian":[1.06735985E2,6.0236443E1,4.6499542E1,5.8395306E1,1.8411384E0,3.3798378E1,1.2701162E1,4.61489E1,1.2246404E1,1.1441153E1,2.2357227E1,1.1456239E1,1.244924E0],"tree_param":{"num_deleted":"0","num_feature":"8","num_nodes":"13","size_leaf_vector":"1"}},{"base_weights":[3.47286E-3,-6.76264E-1,5.5069363E-1,-8.8306314E-1,3.8776997E-2,-2.3322685E-1,8.2841355E-1,-9.653755E-3,-4.2045795E-4,-7.260903E-3,4.4976324E-3,-8.390419E-3,4.0847136E-4,1.8118739E-3,1.0896625E-2],"categories":[],"categories_nodes":[],"categories_segments":[],"categories_sizes":[],"default_left":[0,0,0,0,0,0,0,0,0,0,0,0,0,0,0],"id":51,"left_children":[1,3,5,7,9,11,13,-1,-1,-1,-1,-1,-1,-1,-1],"loss_changes":[4.1614475E1,7.504738E0,1.3863716E1,2.5261574E0,4.3940544E0,3.0061483E0,7.3987827E0,0E0,0E0,0E0,0E0,0E0,0E0,0E0,0E0],"parents":[2147483647,0,0,1,1,2,2,3,3,4,4,5,5,6,6],"right_children":[2,4,6,8,10,12,14,-1,-1,-1,-1,-1,-1,-1,-1],"split_conditions":[-1.8737033E-1,4.9259484E-1,-2.639466E-1,8.690955E-1,-5.8221686E-1,-4.538685E-1,2.8828588E-1,-9.653755E-3,-4.2045795E-4,-7.260903E-3,4.4976324E-3,-8.390419E-3,4.0847136E-4,1.8118739E-3,1.0896625E-2],"split_indices":[1,6,5,5,5,7,1,0,0,0,0,0,0,0,0],"split_type":[0,0,0,0,0,0,0,0,0,0,0,0,0,0,0],"sum_hessian":[1.0890903E2,4.8333958E1,6.057507E1,3.732613E1,1.1007824E1,1.5814815E1,4.4760258E1,3.3688274E1,3.6378584E0,3.3604598E0,7.6473646E0,4.0766244E0,1.1738191E1,1.3712236E1,3.104802E1],"tree_param":{"num_deleted":"0","num_feature":"8","num_nodes":"15","size_leaf_vector":"1"}},{"base_weights":[4.458391E-2,-2.0890644E-1,8.9323103E-1,-4.2991728E-1,3.2609463E-1,5.1783746E-1,1.3826447E-2,-6.7070215E-3,4.151666E-4,-4.1992594E-3,5.485183E-3,7.968873E-3,-6.7008566E-3],"categories":[],"categories_nodes":[],"categories_segments":[],"categories_sizes":[],"default_left":[0,0,0,0,0,0,0,0,0,0,0,0,0],"id":52,"left_children":[1,3,5,7,9,11,-1,-1,-1,-1,-1,-1,-1],"loss_changes":[2.3764301E1,1.0263904E1,3.404396E0,7.0162373E0,4.598192E0,6.4138374E0,0E0,0E0,0E0,0E0,0E0,0E0,0E0],"parents":[2147483647,0,0,1,1,2,2,3,3,4,4,5,5],"right_children":[2,4,6,8,10,12,-1,-1,-1,-1,-1,-1,-1],"split_conditions":[9.60541E-1,4.675749E-1,3.0965394E-1,-2.0014292E-1,-7.921693E-1,-4.3350342E-1,1.3826447E-2,-6.7070215E-3,4.151666E-4,-4.1992594E-3,5.485183E-3,7.968873E-3,-6.7008566E-3],"split_indices":[0,4,4,7,7,4,0,0,0,0,0,0,0],"split_type":[0,0,0,0,0,0,0,0,0,0,0,0,0],"sum_hessian":[1.0734877E2,8.343863E1,2.3910147E1,5.9387135E1,2.4051493E1,1.5393985E1,8.516162E0,3.9030434E1,2.0356699E1,5.114769E0,1.8936724E1,1.2933724E1,2.4602604E0],"tree_param":{"num_deleted":"0","num_feature":"8","num_nodes":"13","size_leaf_vector":"1"}},{"base_weights":[7.672534E-3,-6.4592797E-1,3.4951553E-1,-1.025757E-2,-2.35619E-1,1.11556105E-1,9.999512E-1,-5.487094E-3,3.0428267E-3,-4.9326016E-4,7.7114725E-3,4.8811296E-3,1.3387818E-2],"categories":[],"categories_nodes":[],"categories_segments":[],"categories_sizes":[],"default_left":[0,0,0,0,0,0,0,0,0,0,0,0,0],"id":53,"left_children":[1,3,5,-1,7,9,11,-1,-1,-1,-1,-1,-1],"loss_changes":[2.451366E1,5.375636E0,1.0897101E1,0E0,3.6830924E0,5.9300957E0,2.1390018E0,0E0,0E0,0E0,0E0,0E0,0E0],"parents":[2147483647,0,0,1,1,2,2,4,4,5,5,6,6],"right_children":[2,4,6,-1,8,10,12,-1,-1,-1,-1,-1,-1],"split_conditions":[-2.894082E-1,-4.538685E-1,9.60541E-1,-1.025757E-2,-5.8221686E-1,1.2764814E0,-1.709788E-1,-5.487094E-3,3.0428267E-3,-4.9326016E-4,7.7114725E-3,4.8811296E-3,1.3387818E-2],"split_indices":[5,7,0,0,5,5,6,0,0,0,0,0,0],"split_type":[0,0,0,0,0,0,0,0,0,0,0,0,0],"sum_hessian":[1.0683278E2,3.612853E1,7.070425E1,1.7466171E1,1.8662357E1,5.316503E1,1.7539219E1,1.1914091E1,6.748266E0,4.3734005E1,9.431026E0,8.561781E0,8.977437E0],"tree_param":{"num_deleted":"0","num_feature":"8","num_nodes":"13","size_leaf_vector":"1"}},{"base_weights":[-1.8744731E-2,-5.8078396E-1,7.3705405E-1,-7.900343E-1,1.1879643E-1,2.9239967E-1,1.1747353E0,-9.947622E-3,-3.5528117E-3,-3.6669194E-3,8.0114445E-3,-2.9541438E-3,6.476911E-3,1.2466941E-2,-2.7511918E-4],"categories":[],"categories_nodes":[],"categories_segments":[],"categories_sizes":[],"default_left":[0,0,0,0,0,0,0,0,0,0,0,0,0,0,0],"id":54,"left_children":[1,3,5,7,9,11,13,-1,-1,-1,-1,-1,-1,-1,-1],"loss_changes":[4.7871944E1,9.67942E0,8.683434E0,3.7950363E0,5.8145704E0,5.737673E0,2.2141075E0,0E0,0E0,0E0,0E0,0E0,0E0,0E0,0E0],"parents":[2147483647,0,0,1,1,2,2,3,3,4,4,5,5,6,6],"right_children":[2,4,6,8,10,12,14,-1,-1,-1,-1,-1,-1,-1,-1],"split_conditions":[1.2973382E-1,4.653247E-1,9.85915E-1,-2.0014292E-1,6.452562E-1,-5.2246076E-1,2.5062633E0,-9.947622E-3,-3.5528117E-3,-3.6669194E-3,8.0114445E-3,-2.9541438E-3,6.476911E-3,1.2466941E-2,-2.7511918E-4],"split_indices":[1,6,1,7,3,6,7,0,0,0,0,0,0,0,0],"split_type":[0,0,0,0,0,0,0,0,0,0,0,0,0,0,0],"sum_hessian":[1.0972114E2,6.3201714E1,4.651942E1,4.8610813E1,1.4590901E1,2.4430386E1,2.2089035E1,3.1578243E1,1.703257E1,8.845037E0,5.7458644E0,9.192738E0,1.5237647E1,2.0867748E1,1.2212865E0],"tree_param":{"num_deleted":"0","num_feature":"8","num_nodes":"15","size_leaf_vector":"1"}},{"base_weights":[-2.247367E-2,-3.1351376E-1,1.274709E0,-1.0103784E0,-7.3265657E-3,1.3373008E0,1.1221374E-3,-1.184134E-2,-1.0811298E-3,-9.444061E-3,1.9561532E-3,2.8438922E-3,1.4112817E-2],"categories":[],"categories_nodes":[],"categories_segments":[],"categories_sizes":[],"default_left":[0,0,0,0,0,0,0,0,0,0,0,0,0],"id":55,"left_children":[1,3,5,7,9,11,-1,-1,-1,-1,-1,-1,-1],"loss_changes":[4.1500732E1,1.908207E1,1.0948639E0,3.966547E0,1.2543988E1,6.994629E-1,0E0,0E0,0E0,0E0,0E0,0E0,0E0],"parents":[2147483647,0,0,1,1,2,2,3,3,4,4,5,5],"right_children":[2,4,6,8,10,12,-1,-1,-1,-1,-1,-1,-1],"split_conditions":[1.0810462E0,-6.630265E-1,4.0068617E0,6.9086415E-1,-6.586017E-1,-7.859098E-1,1.1221374E-3,-1.184134E-2,-1.0811298E-3,-9.444061E-3,1.9561532E-3,2.8438922E-3,1.4112817E-2],"split_indices":[1,1,4,5,5,5,0,0,0,0,0,0,0],"split_type":[0,0,0,0,0,0,0,0,0,0,0,0,0],"sum_hessian":[1.0709312E2,8.846041E1,1.8632708E1,2.585027E1,6.261014E1,1.738507E1,1.2476358E0,2.1190107E1,4.660163E0,1.0257723E1,5.235242E1,1.707102E0,1.5677969E1],"tree_param":{"num_deleted":"0","num_feature":"8","num_nodes":"13","size_leaf_vector":"1"}},{"base_weights":[3.2329068E-2,-4.5345002E-1,8.950038E-1,-9.1446745E-1,-1.4583345E-2,3.788564E-1,1.2527274E0,-1.0193601E-2,5.907865E-4,-9.628902E-3,2.1881768E-3,-7.762873E-3,5.9256502E-3,1.3082957E-2,1.1083699E-3],"categories":[],"categories_nodes":[],"categories_segments":[],"categories_sizes":[],"default_left":[0,0,0,0,0,0,0,0,0,0,0,0,0,0,0],"id":56,"left_children":[1,3,5,7,9,11,13,-1,-1,-1,-1,-1,-1,-1,-1],"loss_changes":[4.5017834E1,1.3776489E1,6.273472E0,3.5913944E0,8.536668E0,5.1432085E0,1.0430679E0,0E0,0E0,0E0,0E0,0E0,0E0,0E0,0E0],"parents":[2147483647,0,0,1,1,2,2,3,3,4,4,5,5,6,6],"right_children":[2,4,6,8,10,12,14,-1,-1,-1,-1,-1,-1,-1,-1],"split_conditions":[4.1512755E-1,-4.538685E-1,1.0810462E0,2.2486505E-1,-6.331401E-1,-6.586017E-1,2.7681375E0,-1.0193601E-2,5.907865E-4,-9.628902E-3,2.1881768E-3,-7.762873E-3,5.9256502E-3,1.3082957E-2,1.1083699E-3],"split_indices":[1,7,1,1,5,5,6,0,0,0,0,0,0,0,0],"split_type":[0,0,0,0,0,0,0,0,0,0,0,0,0,0,0],"sum_hessian":[1.0436533E2,6.714889E1,3.721645E1,3.184411E1,3.5304775E1,1.661352E1,2.0602928E1,2.8775845E1,3.0682664E0,6.13175E0,2.9173025E1,1.904212E0,1.4709309E1,1.9354889E1,1.2480404E0],"tree_param":{"num_deleted":"0","num_feature":"8","num_nodes":"15","size_leaf_vector":"1"}},{"base_weights":[1.7684659E-2,-5.5252314E-1,6.95126E-1,-9.804963E-1,-1.2179937E-1,2.9347786E-1,1.2228634E0,4.264396E-4,-1.0336086E-2,-7.511595E-3,1.1242952E-3,-3.5928683E-3,5.2785906E-3,1.31588075E-2,6.420094E-4],"categories":[],"categories_nodes":[],"categories_segments":[],"categories_sizes":[],"default_left":[0,0,0,0,0,0,0,0,0,0,0,0,0,0,0],"id":57,"left_children":[1,3,5,7,9,11,13,-1,-1,-1,-1,-1,-1,-1,-1],"loss_changes":[4.2854584E1,1.0801134E1,1.0067011E1,1.7872524E0,4.880508E0,5.028636E0,2.036354E0,0E0,0E0,0E0,0E0,0E0,0E0,0E0,0E0],"parents":[2147483647,0,0,1,1,2,2,3,3,4,4,5,5,6,6],"right_children":[2,4,6,8,10,12,14,-1,-1,-1,-1,-1,-1,-1,-1],"split_conditions":[1.2973382E-1,-3.692933E-1,1.0810462E0,-1.710012E0,-8.215786E-1,-7.075941E-1,1.8136821E0,4.264396E-4,-1.0336086E-2,-7.511595E-3,1.1242952E-3,-3.5928683E-3,5.2785906E-3,1.31588075E-2,6.420094E-4],"split_indices":[1,7,1,2,1,7,6,0,0,0,0,0,0,0,0],"split_type":[0,0,0,0,0,0,0,0,0,0,0,0,0,0,0],"sum_hessian":[1.0791275E2,5.8663876E1,4.924887E1,2.834908E1,3.0314798E1,2.9398235E1,1.9850637E1,1.3206831E0,2.7028397E1,7.4401193E0,2.2874678E1,7.4430094E0,2.1955227E1,1.8107155E1,1.7434822E0],"tree_param":{"num_deleted":"0","num_feature":"8","num_nodes":"15","size_leaf_vector":"1"}},{"base_weights":[4.2910792E-2,-4.370405E-1,8.5012025E-1,-9.810374E-1,-1.0849516E-1,8.5627414E-2,1.1330141E0,-1.09759625E-2,-1.3255345E-3,-5.638154E-3,5.7286457E-3,-4.322561E-3,5.925607E-3,1.2278448E-2,1.8403626E-3],"categories":[],"categories_nodes":[],"categories_segments":[],"categories_sizes":[],"default_left":[0,0,0,0,0,0,0,0,0,0,0,0,0,0,0],"id":58,"left_children":[1,3,5,7,9,11,13,-1,-1,-1,-1,-1,-1,-1,-1],"loss_changes":[4.145346E1,1.1714243E1,8.363525E0,2.1256695E0,1.4010318E1,3.6811197E0,2.121624E0,0E0,0E0,0E0,0E0,0E0,0E0,0E0,0E0],"parents":[2147483647,0,0,1,1,2,2,3,3,4,4,5,5,6,6],"right_children":[2,4,6,8,10,12,14,-1,-1,-1,-1,-1,-1,-1,-1],"split_conditions":[2.8828588E-1,-3.912547E-1,-2.2575417E-1,1.2625237E0,9.566266E-2,7.956525E-1,2.2975998E0,-1.09759625E-2,-1.3255345E-3,-5.638154E-3,5.7286457E-3,-4.322561E-3,5.925607E-3,1.2278448E-2,1.8403626E-3],"split_indices":[1,5,5,0,6,1,4,0,0,0,0,0,0,0,0],"split_type":[0,0,0,0,0,0,0,0,0,0,0,0,0,0,0],"sum_hessian":[1.0395331E2,6.554531E1,3.8408005E1,2.3443987E1,4.2101322E1,1.0997055E1,2.7410948E1,2.012157E1,3.3224156E0,2.5479874E1,1.6621449E1,5.4515004E0,5.5455546E0,2.4424095E1,2.986853E0],"tree_param":{"num_deleted":"0","num_feature":"8","num_nodes":"15","size_leaf_vector":"1"}},{"base_weights":[3.8495935E-2,-6.078896E-1,3.6932212E-1,-9.653382E-1,-2.0639178E-1,-1.9865389E-1,5.374317E-1,-3.8107052E-3,-1.06437355E-2,-5.2792886E-3,2.376223E-3,-5.8575813E-3,4.7535803E-3,1.7058973E-3,7.4313073E-3],"categories":[],"categories_nodes":[],"categories_segments":[],"categories_sizes":[],"default_left":[0,0,0,0,0,0,0,0,0,0,0,0,0,0,0],"id":59,"left_children":[1,3,5,7,9,11,13,-1,-1,-1,-1,-1,-1,-1,-1],"loss_changes":[2.3490175E1,4.9166174E0,7.1382465E0,3.532467E-1,3.0068846E0,5.0127296E0,3.9938889E0,0E0,0E0,0E0,0E0,0E0,0E0,0E0,0E0],"parents":[2147483647,0,0,1,1,2,2,3,3,4,4,5,5,6,6],"right_children":[2,4,6,8,10,12,14,-1,-1,-1,-1,-1,-1,-1,-1],"split_conditions":[-2.894082E-1,-4.538685E-1,-7.075941E-1,-8.695591E-1,-5.8221686E-1,1.5323298E-1,-4.618604E-1,-3.8107052E-3,-1.06437355E-2,-5.2792886E-3,2.376223E-3,-5.8575813E-3,4.7535803E-3,1.7058973E-3,7.4313073E-3],"split_indices":[5,7,7,3,5,6,6,0,0,0,0,0,0,0,0],"split_type":[0,0,0,0,0,0,0,0,0,0,0,0,0,0,0],"sum_hessian":[1.0688541E2,3.565747E1,7.1227936E1,1.7617365E1,1.8040106E1,1.6069168E1,5.5158768E1,3.7536829E0,1.3863682E1,1.0429334E1,7.6107726E0,1.0425995E1,5.6431727E0,2.09776E1,3.4181168E1],"tree_param":{"num_deleted":"0","num_feature":"8","num_nodes":"15","size_leaf_vector":"1"}},{"base_weights":[3.712029E-2,-4.5061666E-1,7.19821E-1,-9.081424E-1,8.872352E-3,-4.7968987E-2,9.693851E-1,-9.775866E-3,7.544647E-4,-5.8107353E-3,3.0525092E-3,-6.6531077E-3,7.073092E-3,2.2700985E-3,1.210418E-2],"categories":[],"categories_nodes":[],"categories_segments":[],"categories_sizes":[],"default_left":[0,0,0,0,0,0,0,0,0,0,0,0,0,0,0],"id":60,"left_children":[1,3,5,7,9,11,13,-1,-1,-1,-1,-1,-1,-1,-1],"loss_changes":[3.6700974E1,1.3604465E1,8.966616E0,2.4075031E0,6.0821376E0,6.5780005E0,5.679619E0,0E0,0E0,0E0,0E0,0E0,0E0,0E0,0E0],"parents":[2147483647,0,0,1,1,2,2,3,3,4,4,5,5,6,6],"right_children":[2,4,6,8,10,12,14,-1,-1,-1,-1,-1,-1,-1,-1],"split_conditions":[2.2486505E-1,-3.692933E-1,-2.512158E-1,3.5657564E-1,-6.313161E-1,7.956525E-1,-5.2246076E-1,-9.775866E-3,7.544647E-4,-5.8107353E-3,3.0525092E-3,-6.6531077E-3,7.073092E-3,2.2700985E-3,1.210418E-2],"split_indices":[1,7,5,0,1,1,6,0,0,0,0,0,0,0,0],"split_type":[0,0,0,0,0,0,0,0,0,0,0,0,0,0,0],"sum_hessian":[1.0717825E2,6.2727646E1,4.445061E1,3.0806139E1,3.1921505E1,1.1102987E1,3.3347626E1,2.8878084E1,1.9280554E0,1.0079613E1,2.1841892E1,6.28054E0,4.8224473E0,8.989086E0,2.435854E1],"tree_param":{"num_deleted":"0","num_feature":"8","num_nodes":"15","size_leaf_vector":"1"}},{"base_weights":[4.5952685E-3,-5.138743E-1,6.3301677E-1,-7.4428576E-1,2.7502453E-1,-6.5980636E-2,8.887174E-1,-1.0170461E-2,-3.0746432E-3,-7.3999614E-3,7.1277046E-3,-4.839926E-3,5.100513E-3,1.0735389E-2,3.5620464E-3],"categories":[],"categories_nodes":[],"categories_segments":[],"categories_sizes":[],"default_left":[0,0,0,0,0,0,0,0,0,0,0,0,0,0,0],"id":61,"left_children":[1,3,5,7,9,11,13,-1,-1,-1,-1,-1,-1,-1,-1],"loss_changes":[3.6303608E1,1.1433428E1,9.184914E0,5.079138E0,7.353435E0,3.9313858E0,2.9383564E0,0E0,0E0,0E0,0E0,0E0,0E0,0E0,0E0],"parents":[2147483647,0,0,1,1,2,2,3,3,4,4,5,5,6,6],"right_children":[2,4,6,8,10,12,14,-1,-1,-1,-1,-1,-1,-1,-1],"split_conditions":[1.2973382E-1,4.9259484E-1,-2.512158E-1,-2.8471813E-1,-7.3498654E-1,7.956525E-1,1.164285E0,-1.0170461E-2,-3.0746432E-3,-7.3999614E-3,7.1277046E-3,-4.839926E-3,5.100513E-3,1.0735389E-2,3.5620464E-3],"split_indices":[1,6,5,7,5,1,4,0,0,0,0,0,0,0,0],"split_type":[0,0,0,0,0,0,0,0,0,0,0,0,0,0,0],"sum_hessian":[1.0838901E2,5.945273E1,4.893628E1,4.617741E1,1.3275318E1,1.330014E1,3.563614E1,2.7059525E1,1.9117886E1,3.6191921E0,9.656127E0,7.946696E0,5.3534446E0,2.5183743E1,1.0452397E1],"tree_param":{"num_deleted":"0","num_feature":"8","num_nodes":"15","size_leaf_vector":"1"}},{"base_weights":[4.9428817E-2,-4.404538E-1,7.9301274E-1,-8.6581486E-1,-4.227737E-2,3.8940486E-1,1.3195387E0,-1.1216026E-3,-9.03702E-3,-6.0209446E-3,2.6757142E-3,-1.5240506E-3,6.65096E-3,1.4335748E-2,2.7781748E-3],"categories":[],"categories_nodes":[],"categories_segments":[],"categories_sizes":[],"default_left":[0,0,0,0,0,0,0,0,0,0,0,0,0,0,0],"id":62,"left_children":[1,3,5,7,9,11,13,-1,-1,-1,-1,-1,-1,-1,-1],"loss_changes":[3.980585E1,1.1004495E1,8.282782E0,6.4958954E-1,6.467924E0,4.207556E0,1.3816032E0,0E0,0E0,0E0,0E0,0E0,0E0,0E0,0E0],"parents":[2147483647,0,0,1,1,2,2,3,3,4,4,5,5,6,6],"right_children":[2,4,6,8,10,12,14,-1,-1,-1,-1,-1,-1,-1,-1],"split_conditions":[2.2486505E-1,-4.538685E-1,1.1127566E0,-1.0163535E0,-6.630265E-1,-4.9216056E-1,1.6470312E0,-1.1216026E-3,-9.03702E-3,-6.0209446E-3,2.6757142E-3,-1.5240506E-3,6.65096E-3,1.4335748E-2,2.7781748E-3],"split_indices":[1,7,1,6,1,6,6,0,0,0,0,0,0,0,0],"split_type":[0,0,0,0,0,0,0,0,0,0,0,0,0,0,0],"sum_hessian":[1.06240944E2,6.433394E1,4.1907013E1,3.013196E1,3.4201977E1,2.5307137E1,1.6599874E1,1.8529488E0,2.827901E1,1.1796567E1,2.2405409E1,8.638378E0,1.6668758E1,1.4366909E1,2.2329657E0],"tree_param":{"num_deleted":"0","num_feature":"8","num_nodes":"15","size_leaf_vector":"1"}},{"base_weights":[1.3852852E-2,-5.6443524E-1,7.119586E-1,-6.5944487E-1,9.390167E-3,-2.2491218E-1,9.8955053E-1,-9.34186E-3,-2.6967435E-3,-7.0013436E-3,5.6180633E-3,3.9075776E-3,1.1964927E-2],"categories":[],"categories_nodes":[],"categories_segments":[],"categories_sizes":[],"default_left":[0,0,0,0,0,0,0,0,0,0,0,0,0],"id":63,"left_children":[1,3,5,7,-1,9,11,-1,-1,-1,-1,-1,-1],"loss_changes":[4.346761E1,9.301607E0,1.3109589E1,5.5262947E0,0E0,5.202837E0,3.8524094E0,0E0,0E0,0E0,0E0,0E0,0E0],"parents":[2147483647,0,0,1,1,2,2,3,3,5,5,6,6],"right_children":[2,4,6,8,-1,10,12,-1,-1,-1,-1,-1,-1],"split_conditions":[1.2973382E-1,1.7093289E0,-3.912547E-1,-2.8471813E-1,9.390167E-3,7.956525E-1,-5.2246076E-1,-9.34186E-3,-2.6967435E-3,-7.0013436E-3,5.6180633E-3,3.9075776E-3,1.1964927E-2],"split_indices":[1,5,5,7,0,1,6,0,0,0,0,0,0],"split_type":[0,0,0,0,0,0,0,0,0,0,0,0,0],"sum_hessian":[1.0464174E2,5.7311073E1,4.733066E1,5.4759186E1,2.551888E0,1.080118E1,3.652948E1,3.0739704E1,2.4019482E1,6.9158273E0,3.8853524E0,1.0618929E1,2.5910553E1],"tree_param":{"num_deleted":"0","num_feature":"8","num_nodes":"13","size_leaf_vector":"1"}},{"base_weights":[-4.4209123E-2,-5.284801E-1,6.5591943E-1,-1.0164543E0,-2.5347233E-1,-2.089718E-1,9.75261E-1,-1.1558233E-2,-6.350458E-4,1.611464E-3,-5.7326574E-3,-6.2040165E-3,5.8804364E-3,3.943641E-3,1.1786533E-2],"categories":[],"categories_nodes":[],"categories_segments":[],"categories_sizes":[],"default_left":[0,0,0,0,0,0,0,0,0,0,0,0,0,0,0],"id":64,"left_children":[1,3,5,7,9,11,13,-1,-1,-1,-1,-1,-1,-1,-1],"loss_changes":[3.7283745E1,8.213858E0,1.279318E1,2.7975655E0,5.977048E0,4.901287E0,3.0641346E0,0E0,0E0,0E0,0E0,0E0,0E0,0E0,0E0],"parents":[2147483647,0,0,1,1,2,2,3,3,4,4,5,5,6,6],"right_children":[2,4,6,8,10,12,14,-1,-1,-1,-1,-1,-1,-1,-1],"split_conditions":[2.2486505E-1,-3.912547E-1,-2.512158E-1,1.2625237E0,-5.9142435E-1,1.0810462E0,-5.2246076E-1,-1.1558233E-2,-6.350458E-4,1.611464E-3,-5.7326574E-3,-6.2040165E-3,5.8804364E-3,3.943641E-3,1.1786533E-2],"split_indices":[1,5,5,0,4,1,6,0,0,0,0,0,0,0,0],"split_type":[0,0,0,0,0,0,0,0,0,0,0,0,0,0,0],"sum_hessian":[1.0696872E2,6.3533733E1,4.3434986E1,2.1311255E1,4.222248E1,1.1768084E1,3.1666903E1,1.8222012E1,3.0892434E0,1.8573278E1,2.36492E1,8.063472E0,3.7046118E0,9.48303E0,2.2183872E1],"tree_param":{"num_deleted":"0","num_feature":"8","num_nodes":"15","size_leaf_vector":"1"}},{"base_weights":[-5.2636962E-2,-6.664884E-1,2.73165E-1,-1.0004268E0,-2.9575223E-1,-2.4600032E-1,5.084211E-1,-3.6033036E-3,-1.1121121E-2,-4.457425E-3,4.4312887E-3,3.540815E-3,-5.6433193E-3,2.3267812E-3,8.768804E-3],"categories":[],"categories_nodes":[],"categories_segments":[],"categories_sizes":[],"default_left":[0,0,0,0,0,0,0,0,0,0,0,0,0,0,0],"id":65,"left_children":[1,3,5,7,9,11,13,-1,-1,-1,-1,-1,-1,-1,-1],"loss_changes":[2.1690853E1,4.082279E0,8.859854E0,6.1091995E-1,2.5232935E0,4.705366E0,4.595582E0,0E0,0E0,0E0,0E0,0E0,0E0,0E0,0E0],"parents":[2147483647,0,0,1,1,2,2,3,3,4,4,5,5,6,6],"right_children":[2,4,6,8,10,12,14,-1,-1,-1,-1,-1,-1,-1,-1],"split_conditions":[-2.639466E-1,-4.538685E-1,-5.384437E-1,-8.695591E-1,3.468118E-1,-8.513551E-1,4.025486E-1,-3.6033036E-3,-1.1121121E-2,-4.457425E-3,4.4312887E-3,3.540815E-3,-5.6433193E-3,2.3267812E-3,8.768804E-3],"split_indices":[5,7,7,3,4,0,4,0,0,0,0,0,0,0,0],"split_type":[0,0,0,0,0,0,0,0,0,0,0,0,0,0,0],"sum_hessian":[1.0539535E2,3.6105843E1,6.92895E1,1.7513346E1,1.8592499E1,2.1453077E1,4.7836422E1,3.6766117E0,1.3836733E1,1.6062342E1,2.530159E0,7.268587E0,1.4184491E1,2.8915577E1,1.8920843E1],"tree_param":{"num_deleted":"0","num_feature":"8","num_nodes":"15","size_leaf_vector":"1"}},{"base_weights":[5.183216E-2,-2.3412322E-1,1.221847E0,-5.662436E-1,1.2845251E-1,1.3368692E0,2.4722545E-1,-8.668748E-3,3.3645444E-3,-3.300728E-3,4.5454684E-3,1.39947925E-2,4.2382358E-3,5.5214358E-3,-1.8259895E-3],"categories":[],"categories_nodes":[],"categories_segments":[],"categories_sizes":[],"default_left":[0,0,0,0,0,0,0,0,0,0,0,0,0,0,0],"id":66,"left_children":[1,3,5,7,9,11,13,-1,-1,-1,-1,-1,-1,-1,-1],"loss_changes":[3.7074615E1,1.08666115E1,1.7856026E0,1.3206509E1,6.7587376E0,1.6078949E-2,7.4250495E-1,0E0,0E0,0E0,0E0,0E0,0E0,0E0,0E0],"parents":[2147483647,0,0,1,1,2,2,3,3,4,4,5,5,6,6],"right_children":[2,4,6,8,10,12,14,-1,-1,-1,-1,-1,-1,-1,-1],"split_conditions":[1.0810462E0,-1.8737033E-1,2.2975998E0,4.9259484E-1,-4.951906E-1,1.8136821E0,3.0292349E-2,-8.668748E-3,3.3645444E-3,-3.300728E-3,4.5454684E-3,1.39947925E-2,4.2382358E-3,5.5214358E-3,-1.8259895E-3],"split_indices":[1,1,4,6,6,6,2,0,0,0,0,0,0,0,0],"split_type":[0,0,0,0,0,0,0,0,0,0,0,0,0,0,0],"sum_hessian":[1.0773431E2,8.747059E1,2.0263714E1,4.535683E1,4.211376E1,1.7534248E1,2.729467E0,3.4152958E1,1.1203872E1,1.7367767E1,2.4745993E1,1.5558682E1,1.9755645E0,1.483122E0,1.2463449E0],"tree_param":{"num_deleted":"0","num_feature":"8","num_nodes":"15","size_leaf_vector":"1"}},{"base_weights":[-4.401251E-2,-7.297397E-1,4.5368525E-1,-9.329372E-1,1.1283345E-1,1.9569282E-1,1.0859605E0,-1.0198814E-2,-1.6592821E-3,-8.723536E-3,6.692628E-3,-5.357121E-3,3.8948278E-3,1.1822761E-2,1.5173741E-3],"categories":[],"categories_nodes":[],"categories_segments":[],"categories_sizes":[],"default_left":[0,0,0,0,0,0,0,0,0,0,0,0,0,0,0],"id":67,"left_children":[1,3,5,7,9,11,13,-1,-1,-1,-1,-1,-1,-1,-1],"loss_changes":[3.7075237E1,8.064236E0,9.81309E0,2.100212E0,6.404369E0,6.9051695E0,1.1978264E0,0E0,0E0,0E0,0E0,0E0,0E0,0E0,0E0],"parents":[2147483647,0,0,1,1,2,2,3,3,4,4,5,5,6,6],"right_children":[2,4,6,8,10,12,14,-1,-1,-1,-1,-1,-1,-1,-1],"split_conditions":[-1.8737033E-1,5.531952E-1,1.2078879E0,6.8290645E-1,-5.493724E-1,-6.076785E-1,1.8136821E0,-1.0198814E-2,-1.6592821E-3,-8.723536E-3,6.692628E-3,-5.357121E-3,3.8948278E-3,1.1822761E-2,1.5173741E-3],"split_indices":[1,6,1,2,0,5,6,0,0,0,0,0,0,0,0],"split_type":[0,0,0,0,0,0,0,0,0,0,0,0,0,0,0],"sum_hessian":[1.0559828E2,4.4200493E1,6.139779E1,3.5578167E1,8.622325E0,4.511256E1,1.6285227E1,3.1394535E1,4.1836314E0,2.73987E0,5.882455E0,8.786775E0,3.6325787E1,1.4305097E1,1.9801306E0],"tree_param":{"num_deleted":"0","num_feature":"8","num_nodes":"15","size_leaf_vector":"1"}},{"base_weights":[-9.234044E-2,-6.157144E-1,3.085324E-1,-8.110423E-1,7.145214E-1,-5.058517E-1,4.888823E-1,-2.4609135E-3,-9.466928E-3,1.1384422E-4,9.517864E-3,3.6790397E-4,-7.911439E-3,2.435745E-3,9.487053E-3],"categories":[],"categories_nodes":[],"categories_segments":[],"categories_sizes":[],"default_left":[0,0,0,0,0,0,0,0,0,0,0,0,0,0,0],"id":68,"left_children":[1,3,5,7,9,11,13,-1,-1,-1,-1,-1,-1,-1,-1],"loss_changes":[2.225612E1,1.2822372E1,9.197668E0,2.661749E0,9.913819E-1,1.9047952E0,5.182411E0,0E0,0E0,0E0,0E0,0E0,0E0,0E0,0E0],"parents":[2147483647,0,0,1,1,2,2,3,3,4,4,5,5,6,6],"right_children":[2,4,6,8,10,12,14,-1,-1,-1,-1,-1,-1,-1,-1],"split_conditions":[-3.692933E-1,1.2764814E0,-5.8221686E-1,-8.513551E-1,-7.921693E-1,-1.0277952E0,4.30417E-1,-2.4609135E-3,-9.466928E-3,1.1384422E-4,9.517864E-3,3.6790397E-4,-7.911439E-3,2.435745E-3,9.487053E-3],"split_indices":[7,5,5,0,7,5,4,0,0,0,0,0,0,0,0],"split_type":[0,0,0,0,0,0,0,0,0,0,0,0,0,0,0],"sum_hessian":[1.0307475E2,4.4466053E1,5.86087E1,3.9348816E1,5.1172366E0,1.0034665E1,4.8574036E1,8.578772E0,3.0770044E1,1.7940366E0,3.3232E0,3.7872148E0,6.24745E0,3.331376E1,1.5260279E1],"tree_param":{"num_deleted":"0","num_feature":"8","num_nodes":"15","size_leaf_vector":"1"}},{"base_weights":[2.1417348E-3,-4.907009E-1,6.8537825E-1,-9.7927326E-1,-2.30324E-1,-1.8244345E-1,9.11409E-1,-1.0450542E-2,-8.175956E-4,-3.963202E-3,5.054671E-3,-8.036288E-3,6.653806E-3,5.5495463E-3,1.2698412E-2],"categories":[],"categories_nodes":[],"categories_segments":[],"categories_sizes":[],"default_left":[0,0,0,0,0,0,0,0,0,0,0,0,0,0,0],"id":69,"left_children":[1,3,5,7,9,11,13,-1,-1,-1,-1,-1,-1,-1,-1],"loss_changes":[3.578256E1,7.3795137E0,9.068836E0,9.8879814E-1,5.4550447E0,6.2785625E0,3.3239174E0,0E0,0E0,0E0,0E0,0E0,0E0,0E0,0E0],"parents":[2147483647,0,0,1,1,2,2,3,3,4,4,5,5,6,6],"right_children":[2,4,6,8,10,12,14,-1,-1,-1,-1,-1,-1,-1,-1],"split_conditions":[2.2486505E-1,-5.185628E-1,-4.039855E-1,1.866489E0,9.60541E-1,7.956525E-1,1.1761775E0,-1.0450542E-2,-8.175956E-4,-3.963202E-3,5.054671E-3,-8.036288E-3,6.653806E-3,5.5495463E-3,1.2698412E-2],"split_indices":[1,5,5,0,0,1,1,0,0,0,0,0,0,0,0],"split_type":[0,0,0,0,0,0,0,0,0,0,0,0,0,0,0],"sum_hessian":[1.0320946E2,6.0119488E1,4.3089973E1,1.9327585E1,4.07919E1,8.872347E0,3.4217625E1,1.76742E1,1.6533859E0,3.3958702E1,6.8331995E0,5.2337866E0,3.6385603E0,1.9212532E1,1.5005095E1],"tree_param":{"num_deleted":"0","num_feature":"8","num_nodes":"15","size_leaf_vector":"1"}},{"base_weights":[2.7773183E-2,-7.423995E-1,2.7958998E-1,-8.9897716E-1,-1.5813778E-1,-2.589337E-2,7.059061E-1,1.4069241E-3,-9.750753E-3,5.8658454E-3,-7.763638E-3,-1.6397242E-3,1.3408615E-2,3.533754E-3,9.773407E-3],"categories":[],"categories_nodes":[],"categories_segments":[],"categories_sizes":[],"default_left":[0,0,0,0,0,0,0,0,0,0,0,0,0,0,0],"id":70,"left_children":[1,3,5,7,9,11,13,-1,-1,-1,-1,-1,-1,-1,-1],"loss_changes":[2.1033813E1,2.123499E0,1.0759964E1,1.9190769E0,4.2002406E0,9.462256E0,2.638031E0,0E0,0E0,0E0,0E0,0E0,0E0,0E0,0E0],"parents":[2147483647,0,0,1,1,2,2,3,3,4,4,5,5,6,6],"right_children":[2,4,6,8,10,12,14,-1,-1,-1,-1,-1,-1,-1,-1],"split_conditions":[-5.185628E-1,8.147594E-1,9.566266E-2,-2.471395E0,1.9142369E0,1.7093289E0,-1.1556773E-1,1.4069241E-3,-9.750753E-3,5.8658454E-3,-7.763638E-3,-1.6397242E-3,1.3408615E-2,3.533754E-3,9.773407E-3],"split_indices":[5,7,6,2,7,5,7,0,0,0,0,0,0,0,0],"split_type":[0,0,0,0,0,0,0,0,0,0,0,0,0,0,0],"sum_hessian":[1.05587166E2,2.5198643E1,8.038852E1,1.910067E1,6.0979724E0,4.751514E1,3.287338E1,1.12625E0,1.797442E1,2.7274604E0,3.3705118E0,4.4420666E1,3.0944757E0,1.5962729E1,1.691065E1],"tree_param":{"num_deleted":"0","num_feature":"8","num_nodes":"15","size_leaf_vector":"1"}},{"base_weights":[-7.997846E-3,-7.3782945E-1,2.8282654E-1,-9.376381E-1,2.1245436E-1,-7.775373E-2,5.896126E-1,-1.0184183E-2,-2.854972E-3,6.770557E-3,-6.5569784E-3,-4.7780285E-3,4.8982655E-3,6.4298892E-3,-4.8670755E-3],"categories":[],"categories_nodes":[],"categories_segments":[],"categories_sizes":[],"default_left":[0,0,0,0,0,0,0,0,0,0,0,0,0,0,0],"id":71,"left_children":[1,3,5,7,9,11,13,-1,-1,-1,-1,-1,-1,-1,-1],"loss_changes":[2.2754278E1,6.177477E0,8.575352E0,7.836838E-1,3.269019E0,8.595011E0,2.876298E0,0E0,0E0,0E0,0E0,0E0,0E0,0E0,0E0],"parents":[2147483647,0,0,1,1,2,2,3,3,4,4,5,5,6,6],"right_children":[2,4,6,8,10,12,14,-1,-1,-1,-1,-1,-1,-1,-1],"split_conditions":[-4.039855E-1,1.2625237E0,-2.0014292E-1,6.45609E-1,1.8296617E0,1.7141308E-1,2.7681375E0,-1.0184183E-2,-2.854972E-3,6.770557E-3,-6.5569784E-3,-4.7780285E-3,4.8982655E-3,6.4298892E-3,-4.8670755E-3],"split_indices":[5,0,7,7,7,6,6,0,0,0,0,0,0,0,0],"split_type":[0,0,0,0,0,0,0,0,0,0,0,0,0,0,0],"sum_hessian":[1.04014565E2,2.9078812E1,7.493575E1,2.4130314E1,4.9484982E0,3.4812653E1,4.0123096E1,2.058468E1,3.545633E0,3.5135486E0,1.4349494E0,2.0662498E1,1.4150155E1,3.8891235E1,1.2318586E0],"tree_param":{"num_deleted":"0","num_feature":"8","num_nodes":"15","size_leaf_vector":"1"}},{"base_weights":[-1.1663913E-1,-5.041443E-1,9.701096E-1,-1.0449723E0,-2.4719404E-1,3.962872E-1,1.2133176E0,-1.1856954E-2,-4.5986045E-3,-8.898554E-3,7.796791E-5,-2.2445538E-3,8.764375E-3,1.3088138E-2,2.680849E-3],"categories":[],"categories_nodes":[],"categories_segments":[],"categories_sizes":[],"default_left":[0,0,0,0,0,0,0,0,0,0,0,0,0,0,0],"id":72,"left_children":[1,3,5,7,9,11,13,-1,-1,-1,-1,-1,-1,-1,-1],"loss_changes":[4.5158367E1,1.0447706E1,3.0536957E0,1.0613861E0,9.206288E0,3.562848E0,1.0272179E0,0E0,0E0,0E0,0E0,0E0,0E0,0E0,0E0],"parents":[2147483647,0,0,1,1,2,2,3,3,4,4,5,5,6,6],"right_children":[2,4,6,8,10,12,14,-1,-1,-1,-1,-1,-1,-1,-1],"split_conditions":[7.322317E-1,-5.185628E-1,-4.5277035E-1,5.6103384E-1,-6.630265E-1,1.2078879E0,1.8136821E0,-1.1856954E-2,-4.5986045E-3,-8.898554E-3,7.796791E-5,-2.2445538E-3,8.764375E-3,1.3088138E-2,2.680849E-3],"split_indices":[1,5,6,7,1,1,6,0,0,0,0,0,0,0,0],"split_type":[0,0,0,0,0,0,0,0,0,0,0,0,0,0,0],"sum_hessian":[1.0410236E2,7.739984E1,2.6702524E1,2.3322117E1,5.4077724E1,9.245081E0,1.7457445E1,1.7421553E1,5.9005637E0,1.4412069E1,3.9665653E1,4.2897644E0,4.9553165E0,1.5235453E1,2.2219923E0],"tree_param":{"num_deleted":"0","num_feature":"8","num_nodes":"15","size_leaf_vector":"1"}},{"base_weights":[-5.607411E-2,-3.1111723E-1,1.0073755E0,-7.8222066E-1,1.5719365E-2,1.1152643E0,-0E0,-9.125181E-3,6.2396824E-3,-1.1488319E-3,1.2702309E-2,1.1787718E-2,6.0264126E-4],"categories":[],"categories_nodes":[],"categories_segments":[],"categories_sizes":[],"default_left":[0,0,0,0,0,0,0,0,0,0,0,0,0],"id":73,"left_children":[1,3,5,7,9,11,-1,-1,-1,-1,-1,-1,-1],"loss_changes":[2.9001514E1,1.3379189E1,2.2969418E0,7.3860817E0,8.900412E0,1.0235176E0,0E0,0E0,0E0,0E0,0E0,0E0,0E0],"parents":[2147483647,0,0,1,1,2,2,3,3,4,4,5,5],"right_children":[2,4,6,8,10,12,-1,-1,-1,-1,-1,-1,-1],"split_conditions":[1.0810462E0,-4.4105363E-1,1.9142369E0,7.09101E-1,1.3783278E0,1.2267516E0,-0E0,-9.125181E-3,6.2396824E-3,-1.1488319E-3,1.2702309E-2,1.1787718E-2,6.0264126E-4],"split_indices":[1,1,7,4,5,2,0,0,0,0,0,0,0],"split_type":[0,0,0,0,0,0,0,0,0,0,0,0,0],"sum_hessian":[1.0395108E2,8.477501E1,1.917607E1,3.3993156E1,5.0781853E1,1.721592E1,1.9601512E0,3.1657494E1,2.3356626E0,4.7155582E1,3.6262698E0,1.59830265E1,1.2328918E0],"tree_param":{"num_deleted":"0","num_feature":"8","num_nodes":"13","size_leaf_vector":"1"}},{"base_weights":[3.6291346E-2,-4.4386604E-1,6.9972885E-1,-8.8029623E-1,1.9725814E-2,-4.9492944E-2,9.4773823E-1,-9.274742E-3,1.8209834E-3,-9.168705E-3,2.806639E-3,-6.4568077E-3,7.0409267E-3,1.0978337E-2,1.4439935E-3],"categories":[],"categories_nodes":[],"categories_segments":[],"categories_sizes":[],"default_left":[0,0,0,0,0,0,0,0,0,0,0,0,0,0,0],"id":74,"left_children":[1,3,5,7,9,11,13,-1,-1,-1,-1,-1,-1,-1,-1],"loss_changes":[3.397817E1,1.2618744E1,8.485838E0,1.9309616E0,7.979353E0,6.277931E0,3.7180672E0,0E0,0E0,0E0,0E0,0E0,0E0,0E0,0E0],"parents":[2147483647,0,0,1,1,2,2,3,3,4,4,5,5,6,6],"right_children":[2,4,6,8,10,12,14,-1,-1,-1,-1,-1,-1,-1,-1],"split_conditions":[2.2486505E-1,-3.692933E-1,-2.512158E-1,1.2764814E0,-6.7133254E-1,7.956525E-1,1.6659161E0,-9.274742E-3,1.8209834E-3,-9.168705E-3,2.806639E-3,-6.4568077E-3,7.0409267E-3,1.0978337E-2,1.4439935E-3],"split_indices":[1,7,5,5,5,1,4,0,0,0,0,0,0,0,0],"split_type":[0,0,0,0,0,0,0,0,0,0,0,0,0,0,0],"sum_hessian":[1.0362083E2,6.0314453E1,4.3306374E1,3.0483955E1,2.9830496E1,1.0968531E1,3.233784E1,2.9460327E1,1.023628E0,5.59484E0,2.4235657E1,6.317789E0,4.6507416E0,2.667882E1,5.6590223E0],"tree_param":{"num_deleted":"0","num_feature":"8","num_nodes":"15","size_leaf_vector":"1"}},{"base_weights":[-2.6950259E-2,-4.599936E-1,7.801517E-1,-1.0742722E0,-2.4290714E-1,3.8800284E-2,1.0308658E0,-1.1000893E-3,-1.1174035E-2,-3.2478285E-3,8.952532E-3,-4.4074384E-3,4.7814935E-3,6.04445E-3,1.2960223E-2],"categories":[],"categories_nodes":[],"categories_segments":[],"categories_sizes":[],"default_left":[0,0,0,0,0,0,0,0,0,0,0,0,0,0,0],"id":75,"left_children":[1,3,5,7,9,11,13,-1,-1,-1,-1,-1,-1,-1,-1],"loss_changes":[3.9096176E1,9.195701E0,7.0874386E0,4.6113205E-1,5.589136E0,2.7476242E0,1.9146538E0,0E0,0E0,0E0,0E0,0E0,0E0,0E0,0E0],"parents":[2147483647,0,0,1,1,2,2,3,3,4,4,5,5,6,6],"right_children":[2,4,6,8,10,12,14,-1,-1,-1,-1,-1,-1,-1,-1],"split_conditions":[4.1512755E-1,-6.331401E-1,-2.512158E-1,-1.7534513E0,1.9288228E0,7.956525E-1,1.1127566E0,-1.1000893E-3,-1.1174035E-2,-3.2478285E-3,8.952532E-3,-4.4074384E-3,4.7814935E-3,6.04445E-3,1.2960223E-2],"split_indices":[1,5,5,5,6,1,1,0,0,0,0,0,0,0,0],"split_type":[0,0,0,0,0,0,0,0,0,0,0,0,0,0,0],"sum_hessian":[1.0891138E2,7.138135E1,3.753002E1,1.6972261E1,5.440909E1,1.0023105E1,2.7506918E1,1.0539535E0,1.5918308E1,5.1839725E1,2.5693636E0,4.681229E0,5.3418756E0,1.2577106E1,1.49298115E1],"tree_param":{"num_deleted":"0","num_feature":"8","num_nodes":"15","size_leaf_vector":"1"}},{"base_weights":[4.6936627E-2,-2.510025E-1,1.2614714E0,-8.271198E-1,-1.055083E-2,1.3249036E-2,7.778288E-4,-1.0259138E-2,-2.2186228E-5,-1.585662E-3,6.527799E-3],"categories":[],"categories_nodes":[],"categories_segments":[],"categories_sizes":[],"default_left":[0,0,0,0,0,0,0,0,0,0,0],"id":76,"left_children":[1,3,5,7,9,-1,-1,-1,-1,-1,-1],"loss_changes":[3.8287956E1,1.1660465E1,1.2702522E0,3.9688702E0,6.1463304E0,0E0,0E0,0E0,0E0,0E0,0E0],"parents":[2147483647,0,0,1,1,2,2,3,3,4,4],"right_children":[2,4,6,8,10,-1,-1,-1,-1,-1,-1],"split_conditions":[1.0810462E0,-6.630265E-1,4.285546E0,5.2895504E-1,1.2625237E0,1.3249036E-2,7.778288E-4,-1.0259138E-2,-2.2186228E-5,-1.585662E-3,6.527799E-3],"split_indices":[1,1,4,6,0,0,0,0,0,0,0],"split_type":[0,0,0,0,0,0,0,0,0,0,0],"sum_hessian":[1.0271772E2,8.337303E1,1.9344683E1,2.3350365E1,6.002267E1,1.8110722E1,1.2339611E0,1.8423674E1,4.926692E0,5.0129074E1,9.893597E0],"tree_param":{"num_deleted":"0","num_feature":"8","num_nodes":"11","size_leaf_vector":"1"}},{"base_weights":[5.123917E-2,-3.9257973E-1,8.4798974E-1,-8.2982594E-1,1.518749E-2,4.411502E-1,1.2613264E0,-9.373493E-3,3.0474295E-3,-8.134326E-3,2.1963737E-3,-4.2954343E-3,6.167031E-3,1.33711295E-2,5.2488357E-4],"categories":[],"categories_nodes":[],"categories_segments":[],"categories_sizes":[],"default_left":[0,0,0,0,0,0,0,0,0,0,0,0,0,0,0],"id":77,"left_children":[1,3,5,7,9,11,13,-1,-1,-1,-1,-1,-1,-1,-1],"loss_changes":[3.8910362E1,1.2692532E1,5.615633E0,4.667078E0,6.629199E0,3.8200517E0,1.4598141E0,0E0,0E0,0E0,0E0,0E0,0E0,0E0,0E0],"parents":[2147483647,0,0,1,1,2,2,3,3,4,4,5,5,6,6],"right_children":[2,4,6,8,10,12,14,-1,-1,-1,-1,-1,-1,-1,-1],"split_conditions":[3.8341713E-1,-4.538685E-1,1.2078879E0,1.034596E0,-6.331401E-1,-7.739521E-1,2.2621245E0,-9.373493E-3,3.0474295E-3,-8.134326E-3,2.1963737E-3,-4.2954343E-3,6.167031E-3,1.33711295E-2,5.2488357E-4],"split_indices":[1,7,1,5,5,6,6,0,0,0,0,0,0,0,0],"split_type":[0,0,0,0,0,0,0,0,0,0,0,0,0,0,0],"sum_hessian":[1.0699564E2,6.912559E1,3.7870052E1,3.272618E1,3.639941E1,2.0769697E1,1.7100355E1,3.0211876E1,2.514304E0,6.2226E0,3.0176811E1,3.0252855E0,1.7744411E1,1.5863893E1,1.2364627E0],"tree_param":{"num_deleted":"0","num_feature":"8","num_nodes":"15","size_leaf_vector":"1"}},{"base_weights":[-1.9650616E-2,-2.9512876E-1,1.1025635E0,-9.955733E-1,-8.085547E-2,1.2090461E0,2.3622197E-1,-1.9412638E-3,-1.0289222E-2,-3.6027385E-3,3.2658027E-3,2.9855764E-3,1.3538235E-2,-1.6700894E-3,5.221812E-3],"categories":[],"categories_nodes":[],"categories_segments":[],"categories_sizes":[],"default_left":[0,0,0,0,0,0,0,0,0,0,0,0,0,0,0],"id":78,"left_children":[1,3,5,7,9,11,13,-1,-1,-1,-1,-1,-1,-1,-1],"loss_changes":[3.229646E1,1.239035E1,1.3252125E0,9.801674E-2,7.7076755E0,1.5823193E0,6.5283847E-1,0E0,0E0,0E0,0E0,0E0,0E0,0E0,0E0],"parents":[2147483647,0,0,1,1,2,2,3,3,4,4,5,5,6,6],"right_children":[2,4,6,8,10,12,14,-1,-1,-1,-1,-1,-1,-1,-1],"split_conditions":[1.0810462E0,-6.586017E-1,2.2975998E0,-2.471395E0,9.566266E-2,-4.294471E-1,1.2078879E0,-1.9412638E-3,-1.0289222E-2,-3.6027385E-3,3.2658027E-3,2.9855764E-3,1.3538235E-2,-1.6700894E-3,5.221812E-3],"split_indices":[1,5,4,2,6,5,1,0,0,0,0,0,0,0,0],"split_type":[0,0,0,0,0,0,0,0,0,0,0,0,0,0,0],"sum_hessian":[1.0165243E2,8.2576416E1,1.907601E1,1.7953045E1,6.462337E1,1.6356792E1,2.7192175E0,1.2457263E0,1.6707317E1,3.8582592E1,2.6040777E1,2.9690118E0,1.3387781E1,1.242053E0,1.4771644E0],"tree_param":{"num_deleted":"0","num_feature":"8","num_nodes":"15","size_leaf_vector":"1"}},{"base_weights":[2.3957571E-2,-4.602684E-1,5.764252E-1,-8.3867943E-1,-4.5078017E-2,-1.0908707E-1,8.0325377E-1,-9.454282E-3,4.694918E-3,-1.0118011E-2,2.1650647E-3,-3.5084307E-3,6.491327E-3,1.3917632E-3,9.153538E-3],"categories":[],"categories_nodes":[],"categories_segments":[],"categories_sizes":[],"default_left":[0,0,0,0,0,0,0,0,0,0,0,0,0,0,0],"id":79,"left_children":[1,3,5,7,9,11,13,-1,-1,-1,-1,-1,-1,-1,-1],"loss_changes":[2.87864E1,8.852093E0,8.023462E0,4.86767E0,7.745962E0,2.8264983E0,2.5389442E0,0E0,0E0,0E0,0E0,0E0,0E0,0E0,0E0],"parents":[2147483647,0,0,1,1,2,2,3,3,4,4,5,5,6,6],"right_children":[2,4,6,8,10,12,14,-1,-1,-1,-1,-1,-1,-1,-1],"split_conditions":[1.2973382E-1,-3.692933E-1,-2.512158E-1,1.3783278E0,-6.7133254E-1,1.3030192E0,-7.075941E-1,-9.454282E-3,4.694918E-3,-1.0118011E-2,2.1650647E-3,-3.5084307E-3,6.491327E-3,1.3917632E-3,9.153538E-3],"split_indices":[1,7,5,5,5,1,7,0,0,0,0,0,0,0,0],"split_type":[0,0,0,0,0,0,0,0,0,0,0,0,0,0,0],"sum_hessian":[1.0457396E2,5.5765778E1,4.880818E1,2.8248667E1,2.7517113E1,1.2218791E1,3.658939E1,2.6572674E1,1.6759934E0,5.0253906E0,2.2491722E1,9.975836E0,2.2429552E0,5.8988934E0,3.0690498E1],"tree_param":{"num_deleted":"0","num_feature":"8","num_nodes":"15","size_leaf_vector":"1"}},{"base_weights":[-3.0900313E-2,-5.0206816E-1,5.504587E-1,-8.4961385E-1,-9.166589E-2,-3.450089E-1,8.4647596E-1,-9.472489E-3,3.0563085E-3,-9.1407895E-3,1.813636E-3,-7.363863E-3,1.9130969E-3,2.866425E-3,1.043322E-2],"categories":[],"categories_nodes":[],"categories_segments":[],"categories_sizes":[],"default_left":[0,0,0,0,0,0,0,0,0,0,0,0,0,0,0],"id":80,"left_children":[1,3,5,7,9,11,13,-1,-1,-1,-1,-1,-1,-1,-1],"loss_changes":[2.828704E1,7.932456E0,1.2729172E1,3.9499435E0,6.607481E0,2.8801098E0,3.3002129E0,0E0,0E0,0E0,0E0,0E0,0E0,0E0,0E0],"parents":[2147483647,0,0,1,1,2,2,3,3,4,4,5,5,6,6],"right_children":[2,4,6,8,10,12,14,-1,-1,-1,-1,-1,-1,-1,-1],"split_conditions":[1.2973382E-1,-3.692933E-1,-2.512158E-1,1.3783278E0,-6.7133254E-1,7.6394206E-1,-5.2246076E-1,-9.472489E-3,3.0563085E-3,-9.1407895E-3,1.813636E-3,-7.363863E-3,1.9130969E-3,2.866425E-3,1.043322E-2],"split_indices":[1,7,5,5,5,1,6,0,0,0,0,0,0,0,0],"split_type":[0,0,0,0,0,0,0,0,0,0,0,0,0,0,0],"sum_hessian":[1.0027264E2,5.5593204E1,4.4679436E1,2.9100626E1,2.6492579E1,1.0954731E1,3.3724705E1,2.7161694E1,1.9389311E0,5.8165355E0,2.0676043E1,6.1174397E0,4.8372912E0,9.863899E0,2.3860806E1],"tree_param":{"num_deleted":"0","num_feature":"8","num_nodes":"15","size_leaf_vector":"1"}},{"base_weights":[-6.2207986E-2,-3.6160865E-1,7.845203E-1,-1.043451E0,-1.2593855E-1,8.765736E-1,-2.3192596E-2,-7.598576E-4,-1.083881E-2,-4.228282E-3,3.7717025E-3,2.1428661E-3,1.0539323E-2,4.84089E-3,-5.971152E-3],"categories":[],"categories_nodes":[],"categories_segments":[],"categories_sizes":[],"default_left":[0,0,0,0,0,0,0,0,0,0,0,0,0,0,0],"id":81,"left_children":[1,3,5,7,9,11,13,-1,-1,-1,-1,-1,-1,-1,-1],"loss_changes":[2.6953167E1,1.2307018E1,2.180212E0,5.372715E-1,9.233269E0,2.4796581E0,1.6649834E0,0E0,0E0,0E0,0E0,0E0,0E0,0E0,0E0],"parents":[2147483647,0,0,1,1,2,2,3,3,4,4,5,5,6,6],"right_children":[2,4,6,8,10,12,14,-1,-1,-1,-1,-1,-1,-1,-1],"split_conditions":[7.322317E-1,-5.69486E-1,1.8136821E0,-1.7279897E0,1.5323298E-1,-2.639466E-1,9.072879E-1,-7.598576E-4,-1.083881E-2,-4.228282E-3,